SVM-light Version V5.01-TK-1.5
5 # kernel type
3 # kernel parameter -d 
1 # kernel parameter -g 
1 # kernel parameter -s 
1 # kernel parameter -r 
empty# kernel parameter -u 
0.4 # kernel parameter -L 
1 # kernel parameter -T 
+ # kernel parameter -C 
3 # kernel parameter -F 
1 # kernel parameter -S 
0.400000 # kernel parameter -M 
3 # kernel parameter -N 
R # kernel parameter -V 
R # kernel parameter -W 
0 # kernel parameter -U 
173 # highest feature index 
4941 # number of training documents 
2088 # number of support vectors plus 1 
-0.040620142 # threshold b, each following line is a SV (starting with alpha*y)
-0.83729093963477874140721723961178  |BT| (ROOT (S (ADVP (WRB (how))(JJ (much)))(NP (DT (the))(JJ (first)))(NP-REL (NNP-REL (barbie))(VB-REL (cost))))) |BT| (ROOT (S (NP-REL (NNP-REL (barbie)))(VP (VBZ (watch))(VBD (go)))(PP (IN (on)))(NP (NN (sale)))(PP (IN (at)))(NP (DT (the))(NN (begin)))(PP (IN (of)))(NP (DT (the))(NN (month))))(S (NP (PRP (they)))(VP-REL (VBD-REL (cost)))(NP (IN (about))($ ($))(CD (25)))(VP (VBP (be)))(ADJP (JJ (available)))(PP (IN (at)))(NP (JJS (most)))(PP (IN (of)))(NP (DT (the))(CD (80,000))(JJ (retail))(NNS (outlet)))(NP (WDT (that)))(VP (VBP (carry)))(NP-WIK (NNP-WIK (timex))(NNS (product)))(CONJP (RB (as))(RB (well))(IN (as)))(NP (NNS (store)))(NP (WDT (that)))(VP (VBP (sell)))(NP (NNS (barby))))) |BT| (ROOT (S (ADVP (WRB (how))(JJ (much)))(NP (DT (the))(JJ (first)))(NP-REL (NNP-REL (barbie))(VB-REL (cost))))) |BT| (ROOT (S (NP (NNS (price)))(NP-REL (NNP-REL (barbie)))(VP-REL (VBD-REL (cost)))(NP ($ ($))(CD (3)))(PP (IN (in)))(NP (CD (1959))))(S (NP (DT (the))(JJ (average))(NN (price)))(ADVP (RB (now)))(NP (NNS (average)))(NP ($ ($))(CD (10))))) |ET| 19:0.47245559 42:0.26216125 64:0.18781206 139:0.18071249 159:0.15120368 161:1.3142858 162:0.45045045 163:1.4285715 164:0.12612613 165:0.15789473 169:0.75 171:1.5238096 172:1.5946032 173:0.47245559  |BV| 19:0.42426407 42:0.32259113 64:0.23328474 65:0.0996271 85:0.070272841 139:0.20851441 159:0.1711842 160:0.033671752 161:1.2 162:0.60952383 163:0.91428572 164:0.4952381 165:0.33333334 166:0.090909094 169:0.75 170:0.2857143 171:1.4476191 172:1.5777777 173:0.42426407  |EV| 
0.83729093963477874140721723961178  |BT| (ROOT (S (NP (WRB (how))(JJ (many))(NNS (term)))(VP (VBD (be)))(NP-REL-WIK (NNP-REL-WIK (dwight))(NNP-REL-WIK (d.))(NNP-REL-WIK (eisenhower))(NN (president))))) |BT| (ROOT (S (NP (PRP (they)))(VP (VBP (have))(VBN (stay)))(ADJP (JJ (high)))(NP (JJR (higher))(IN (than))(DT (those)))(PP (IN (of)))(NP-REL-WIK (NNP-REL-WIK (dwight))(NNP-REL-WIK (d.))(NNP-REL-WIK (eisenhower)))(NP-WIK (NNP-WIK (ronald))(NNP-WIK (reagan)))(PP (IN (at)))(NP (DT (this))(NN (point)))(PP (IN (in)))(NP (PRP$ (their))(JJ (two-term))(NNS (presidency))))) |BT| (ROOT (S (NP (WRB (how))(JJ (many))(NNS (term)))(VP (VBD (be)))(NP-REL-WIK (NNP-REL-WIK (dwight))(NNP-REL-WIK (d.))(NNP-REL-WIK (eisenhower))(NN-REL (president))))) |BT| (ROOT (S (NP (DT (the))(NNP (american))(NNP (assembly)))(VP (VBD (be))(VBN (initiate)))(PP (IN (in)))(NP (CD (1950)))(PP (IN (by)))(NP-REL-WIK (JJ (former))(NNP (us-WIK))(NNP-REL (president))(NNP-REL-WIK (dwight))(NNP-REL-WIK (d.))(NNP-REL-WIK (eisenhower))))) |ET| 19:0.41702881 42:0.36155075 64:0.30151135 65:0.23624977 85:0.16495723 86:0.086629614 139:0.47193989 159:0.39837727 160:0.19796887 161:1.4285715 162:0.91428572 163:1.6326531 164:0.50285715 165:0.20689656 166:0.14285715 167:0.074074075 169:0.66666669 170:0.5 171:1.9 172:1.7330556 173:0.41702881  |BV| 19:0.86066294 42:0.63052827 64:0.50395262 65:0.2981424 85:0.20965697 86:0.11094004 139:0.61804163 159:0.5347178 160:0.33116317 161:1.3877552 162:1.0294118 163:1.4285715 164:0.64705884 165:0.52631581 166:0.2 167:0.10526316 169:1.1111112 170:0.5 171:1.8625 172:1.7222222 173:0.86066294  |EV| 
-0.83729093963477874140721723961178  |BT| (ROOT (S (NP (WP (what)))(VP (VBZ (be)))(NP-REL (DT (the))(`` ("))(NNP-REL (playboy))('' ("))(NN-REL (logo))))) |BT| (ROOT (S (VP (TO (to))(VB (reproduce)))(NP-REL-WIK (DT (the))(NNP-REL-WIK (playboy))(NN-REL (logo)))(NP-WIK (NNP-WIK (doremus)))(VP (VBD (approach)))(NP-REL-WIK (NNP-REL-WIK (playboy))(NNS (executive)))(PP (IN (for)))(NP (PRP$ (their))(NN (permission))))(S (NP-REL-WIK (NNP-REL-WIK (playboy)))(VP (VBD (comply)))(ADVP (RB (also)))(VP (VBD (make)))(NP (DT (a-WIK))(NN (deal)))(PP (IN (with)))(NP-WIK (NNP-WIK (bloomberg)))(VP (TO (to))(VB (run)))(NP (DT (the))(NN (ad)))(PP (IN (in)))(NP (DT (the))(NNP (april))(NN (issue)))(PP (IN (of)))(NP-REL-WIK (NNP-REL-WIK (playboy)))(NP (WP$ (whose))(NN (circulation)))(VP (VBZ (be)))(ADJP (JJR (more)))(PP (IN (than)))(NP (CD (3))(CD (million))))) |BT| (ROOT (S (NP (WP (what)))(VP (VBZ (be)))(NP-REL (DT (the))(`` ("))(NNP-REL (playboy))('' ("))(NN-REL (logo))))) |BT| (ROOT (S (NP-WIK (NNP-WIK (miamus))(-LRB- (-lrb-))(NNP-WIK (ap))(-RRB- (-rrb-)))(NP-WIK (DT (a-WIK))(NNP-WIK (miamus))(NNP-WIK (beach))(NN (company)))(VP (MD (must))(VB (stop))(VBG (use)))(NP-REL-WIK (DT (the))(NNP-REL-WIK (playboy))(NN (name)))(NP-REL (DT (the))(JJ (well-know))(JJ (rabbit))(NN (head))(NN-REL (logo)))(PP (IN (on)))(NP-WIK (PRP$ (its))(NNP-WIK (internet))(NNS (site)))(NP (DT (a-WIK))(JJ (federal))(NN (judge)))(VP (VBD (rule)))(NP (NNP (monday))))) |ET| 19:0.67552799 42:0.41068497 64:0.30244628 139:0.27484462 159:0.23095058 160:0.019181177 161:1.2666667 162:0.38314176 163:1.6666666 164:0.13793103 165:0.21621622 169:1.1428572 171:2 172:1.9 173:0.67552799  |BV| 19:0.41039133 42:0.23358287 64:0.16765189 139:0.27574015 159:0.23006609 161:1.3333334 162:0.48979592 163:1.6 164:0.18367347 165:0.18181819 169:0.85714287 171:2 172:1.8026667 173:0.41039133  |EV| 
0.83729093963477874140721723961178  |BT| (ROOT (S (ADVP (WRB (how))(JJ (much)))(NP (DT (the))(JJ (first)))(NP-REL (NNP-REL (barbie))(VB-REL (cost))))) |BT| (ROOT (S (NP (NNS (price)))(NP-REL (NNP-REL (barbie)))(VP-REL (VBD-REL (cost)))(NP ($ ($))(CD (3)))(PP (IN (in)))(NP (CD (1959))))(S (NP (DT (the))(JJ (average))(NN (price)))(ADVP (RB (now)))(NP (NNS (average)))(NP ($ ($))(CD (10))))) |BT| (ROOT (S (ADVP (WRB (how))(JJ (much)))(NP (DT (the))(JJ (first)))(NP-REL (NNP-REL (barbie))(VB (cost))))) |BT| (ROOT (S (NP-REL (NNP-REL (barbie)))(PP (IN (in-WIK)))(NP-WIK (DT (the))(NNP-WIK (u.s.)))(VP (VBZ (be-WIK))(VBG (turn)))(ADVP (RB (around)))(NP-WIK (NNP-WIK (kinnison)))(VP (VBD (say))))(S (NP (PRP$ (their))(NN (inventory)))(VP (VBD (be)))(PP (IN (in-WIK)))(NP (RB (much))(JJR (better))(NN (shape)))(VP (VBG (go)))(PP (IN (into)))(NP (DT (the))(JJ (first))(NN (quarter)))(NP (DT (this))(NN (year))))(S (NP (NNS (sale)))(VP (VBP (be)))(ADJP (JJ (robust))))(S (NP-REL (NNP-REL (barbie))(JJ (international)))(ADVP (RB (however)))(VP (VBZ (be-WIK)))(ADJP (JJ (disappoint))))) |ET| 19:0.42426407 42:0.32259113 64:0.23328474 65:0.0996271 85:0.070272841 139:0.20851441 159:0.1711842 160:0.033671752 161:1.2 162:0.60952383 163:0.91428572 164:0.4952381 165:0.33333334 166:0.090909094 169:0.75 170:0.2857143 171:1.4476191 172:1.5777777 173:0.42426407  |BV| 19:0.44721359 42:0.31344157 64:0.23227118 65:0.060886256 85:0.04267896 139:0.30718946 159:0.25685796 160:0.020672455 161:1.7714286 162:0.51452285 163:1.7714286 164:0.19917013 165:0.25 166:0.043478262 169:1 170:0.2857143 171:1.9428571 172:1.7952381 173:0.44721359  |EV| 
0.83729093963477874140721723961178  |BT| (ROOT (S (ADVP (WRB (how))(JJ (much)))(NP (DT (the))(JJ (first)))(NP-REL (NNP-REL (barbie))(VB-REL (cost))))) |BT| (ROOT (S (NP (NNS (price)))(NP-REL (NNP-REL (barbie)))(VP-REL (VBD-REL (cost)))(NP ($ ($))(CD (3)))(PP (IN (in)))(NP (CD (1959))))(S (NP (DT (the))(JJ (average))(NN (price)))(ADVP (RB (now)))(NP (NNS (average)))(NP ($ ($))(CD (10))))) |BT| (ROOT (S (ADVP (WRB (how))(JJ (much)))(NP (DT (the))(JJ (first)))(NP-REL (NNP-REL (barbie))(VB (cost))))) |BT| (ROOT (S (NP (CD (1988))(NN (_)))(NP-REL-WIK (NNP-REL-WIK (barbie)))(VP (VBZ (join)))(NP-WIK (NNP-WIK (bopsy)))(NP-WIK (NNP-WIK (belinda)))(NP-WIK (NNP-WIK (becky)))(PP (IN (in-WIK)))(NP (DT (an-WIK))(JJ (all-girl))(NN (band)))(NP-REL-WIK (NNP-REL-WIK (barbie)))(NP-WIK (DT (the))(NNS-WIK (sensation))))(S (NP (DT (the))(NNPS (rocker)))(VP (VB (sue)))(PP (IN (for)))(NP (NN (breach)))(PP (IN (of)))(NP (NN (contract))))(S (ADVP (RB (meanwhile)))(VP (VBP (say)))(NP (UH (hus-WIK)))(PP (TO (to)))(NP-WIK (NNP-WIK (teresa)))(NP-REL-WIK (NNP-REL-WIK (barbie)))(NP-WIK (POS ('))(JJ (first))(JJ-WIK (hispanic))(NN (friend))))) |ET| 19:0.42426407 42:0.32259113 64:0.23328474 65:0.0996271 85:0.070272841 139:0.20851441 159:0.1711842 160:0.033671752 161:1.2 162:0.60952383 163:0.91428572 164:0.4952381 165:0.33333334 166:0.090909094 169:0.75 170:0.2857143 171:1.4476191 172:1.5777777 173:0.42426407  |BV| 19:0.50709254 42:0.29147169 64:0.21170245 139:0.28090033 159:0.2363283 160:0.019920478 161:1.2 162:0.43514645 163:1.4857143 164:0.13389121 165:0.15789473 169:0.75 171:1.5952381 172:1.6174604 173:0.50709254  |EV| 
0.3630817343457483081792247503472  |BT| (ROOT (S (ADVP (WRB (how))(JJ (much)))(NP (DT (the))(JJ (first)))(NP-REL (NNP-REL (barbie))(VB-REL (cost))))) |BT| (ROOT (S (NP (NNS (price)))(NP-REL (NNP-REL (barbie)))(VP-REL (VBD-REL (cost)))(NP ($ ($))(CD (3)))(PP (IN (in)))(NP (CD (1959))))(S (NP (DT (the))(JJ (average))(NN (price)))(ADVP (RB (now)))(NP (NNS (average)))(NP ($ ($))(CD (10))))) |BT| (ROOT (S (ADVP (WRB (how))(JJ (much)))(NP (DT (the))(JJ (first)))(NP-REL (NNP-REL (barbie))(VB-REL (cost))))) |BT| (ROOT (S (NP (PRP$ (my))(NNP (design)))(NP-REL (NNP-REL (barbie)))(VP-REL (MD (will))(VB-REL (cost)))(NP (IN (about))($ ($))(CD (40)))(NP (CC (plus)))(NP ($ ($))(CD (8)))(PP (IN (for)))(NP (NN (ship)))(NP (WDT (which)))(VP (MD (will))(VB (take)))(NP (IN (at))(JJS (least))(CD (six))(NNS (week))))) |ET| 19:0.42426407 42:0.32259113 64:0.23328474 65:0.0996271 85:0.070272841 139:0.20851441 159:0.1711842 160:0.033671752 161:1.2 162:0.60952383 163:0.91428572 164:0.4952381 165:0.33333334 166:0.090909094 169:0.75 170:0.2857143 171:1.4476191 172:1.5777777 173:0.42426407  |BV| 19:0.26261288 42:0.1446203 64:0.1028689 139:0.10640707 159:0.087732799 161:0.91428572 162:0.55384618 163:1.0285715 164:0.24615385 165:0.15384616 169:0.5 171:1.5380952 172:1.5033333 173:0.26261288  |EV| 
0.46441814111769852413402759339078  |BT| (ROOT (S (ADVP (WRB (when)))(VP (VBD (be)))(NP-REL (DT (the))(NN-REL (battle)))(PP (IN (of)))(NP-REL-WIK (NNP-REL-WIK (shiloh))))) |BT| (ROOT (S (PP (IN (in)))(NP (CD (1862)))(NP-REL (DT (the))(NNP (civil))(NNP (war))(NNP-REL (battle)))(PP (IN (of)))(NP-REL-WIK (NNP-REL-WIK (shiloh)))(VP (VBD (begin)))(PP (IN (in)))(NP-WIK (NNP-WIK (tennessee))))) |BT| (ROOT (S (ADVP (WRB (when)))(VP (VBD (be)))(NP-REL (DT (the))(NN-REL (battle)))(PP (IN (of)))(NP-REL-WIK (NNP-REL-WIK (shiloh))))) |BT| (ROOT (S (NP (NNP (mine))(NNP (creek)))(VP (VBD (do))(RB (n't))(VB (have)))(NP (JJ (big))(NNS (name)))(PP (IN (like)))(NP-WIK (NNP-WIK (grant))(CC (and))(NNP-WIK (lee)))(NP (DT (the))(NN (bloodsh)))(PP (IN (of)))(NP-REL-WIK (NNP-REL-WIK (shiloh)))(NP (PRP (it)))(VP (VBD (be)))(NP-REL (DT (an-WIK))(JJ (important))(NN-REL (battle)))(SBAR (IN (because)))(NP (PRP (it)))(VP (VBD (end)))(NP (DT (the))(NNP (confederate)))(NP (POS ('))(NNS (hope)))(PP (IN (in)))(NP (DT (the))(NN (west))))) |ET| 19:0.78072006 42:0.64051259 64:0.53530335 65:0.37721676 85:0.26967993 86:0.14547859 139:0.43519413 159:0.36683699 160:0.16979055 161:1.4666667 162:1.0549451 163:1.6 164:0.7912088 165:0.53333336 166:0.25 167:0.13333334 169:1.1428572 170:0.66666669 171:1.9333333 172:1.8540741 173:0.78072006  |BV| 19:0.78881061 42:0.49926919 64:0.35634834 65:0.073670946 85:0.051899929 139:0.51410252 159:0.44599575 160:0.26035959 161:1.6666666 162:0.50261778 163:1.6 164:0.2303665 165:0.30303031 166:0.051282052 169:1.4285715 170:0.33333334 171:2 172:1.9074074 173:0.78881061  |EV| 
0.10672373456032838157092612618726  |BT| (ROOT (S (NP (WDT (what))(NN (year)))(VP (VBD (do)))(NP-WIK (NNP-WIK (mussolini)))(VP (VB (seize)))(NP-REL (NN-REL (power)))(PP (IN (in-WIK)))(NP-REL-WIK (NNP-REL-WIK (italy))))) |BT| (ROOT (S (NP (DT (the))(NN (rise)))(PP (IN (of)))(NP-WIK (NNP-WIK (benito))(NNP-WIK (mussolinus)))(NP-WIK (POS ('))(NN-WIK (fascist))(NN (movement)))(NP (PRP$ (its))(JJ (eventual))(NN (seizure)))(PP (IN (of)))(NP-REL (NN-REL (power)))(PP (IN (in-WIK)))(NP (CD (1922)))(VP (VBD (be)))(ADVP (RB (largely)))(PP (IN (in-WIK)))(NP (NN (response)))(PP (TO (to-WIK)))(NP (DT (the))(NN (menace)))(PP (IN (of)))(NP (DT (a-WIK))(JJ (communist))(NN (revolution)))(PP (IN (in-WIK)))(NP-REL-WIK (NNP-REL-WIK (italy)))(PP (IN (after)))(NP-WIK (NNP-WIK (world))(NNP-WIK (war))(NNP-WIK (i.))(NNP-WIK (mussolinus)))(NP (POS ('))(JJS (most))(JJ (assiduous))(NN (admirer))(CC (and))(NN (imitator)))(VP (VBD (be)))(NP-WIK (NNP-WIK (germany)))(NP-WIK (POS ('))(NNP-WIK (adolf))(NNP-WIK (hitler)))(NP (WP (who)))(VP (VBD (base)))(NP-WIK (NNP-WIK (nazus))(NN (ideology)))(ADVP (RB (mainly)))(PP (IN (on)))(NP-WIK (DT (the))(JJ-WIK (italian))(NN (dictator)))(NP (POS ('))(NNS (idea))))) |BT| (ROOT (S (NP-REL (WDT (what))(NN-REL (year)))(VP (VBD (do)))(NP-WIK (NNP-WIK (mussolini)))(VP (VB (seize)))(NP (NN (power)))(PP (IN (in-WIK)))(NP-REL-WIK (NNP-REL-WIK (italy))))) |BT| (ROOT (S (PP (IN (in)))(NP-REL-WIK (NNP-REL-WIK (italy)))(ADVP (WRB (where)))(NP-WIK (NNP-WIK (mussolinus)))(VP (VBD (rule)))(PP (IN (for)))(NP-REL (CD (21))(NNS-REL (year)))(NP (DT (the))(NNP (constitution)))(VP (VBZ (forbid)))(NP (DT (the))(NN (resurrection)))(PP (IN (of)))(NP-WIK (DT (the))(NNP-WIK (fascist))(NNP-WIK (party))))(S (NP-WIK (NN-WIK (fascist))(NNS (symbol)))(NP-WIK (JJ-WIK (anti-semitic))(NNS (statement)))(VP (VBP (be)))(ADVP (RB (also)))(ADJP (JJ (illegal))))) |ET| 19:0.34565055 42:0.27632177 64:0.19910805 65:0.097157232 85:0.067544833 139:0.55273527 159:0.4799147 160:0.18910287 161:1.5111111 162:0.40547946 163:1.6444445 164:0.10958904 165:0.11764706 166:0.065573767 169:0.66666669 170:0.5 171:2 172:1.7951587 173:0.34565055  |BV| 19:0.31234753 42:0.23358287 64:0.16666667 65:0.069631062 85:0.048492864 139:0.37832221 159:0.31380498 160:0.071857579 161:1.0666667 162:0.5767442 163:1.3777778 164:0.16744186 165:0.2 166:0.057142857 169:0.66666669 170:0.25 171:1.5875 172:1.6963493 173:0.31234753  |EV| 
0.48752804516947562119000281199988  |BT| (ROOT (S (ADVP (WRB (when)))(VP (VBD (be)))(NP-REL (DT (the))(NN-REL (dog)))(VP-REL (VBN-REL (domesticate))))) |BT| (ROOT (S (NP (DT (the))(JJ (close))(NN (association)))(PP (IN (between)))(NP (NNS (human)))(NP-REL (JJ-REL (domesticate))(NNS-REL (dog)))(VP (VBD (begin)))(NP (IN (at))(JJS (least))(CD (12,000))(NNS (year)))(ADVP (RB (ago))))(S (PP (IN (since)))(NP (RB (then)))(NP (NNS (people)))(VP (VBP (have))(VBN (be))(RB (intimately))(VBN (involve)))(PP (IN (in)))(VP-REL (VBG-REL (domesticate)))(NP-REL (DT (the))(JJ (wild))(NN-REL (dog)))(PP (IN (into)))(NP (NN (hunter))(, (,))(NN (guard))(CC (and))(NN (companion))))(S (ADVP (RB (however)))(NP-REL (DT (the))(JJ-REL (domesticate))(NN-REL (dog)))(VP (VBZ (retain)))(NP (JJ (many)))(PP (IN (of)))(NP (PRP$ (its))(JJ (wild))(NNS (instinct)))(PP (VBG (include)))(NP (NNS (behavior)))(NP (IN (that)))(ADVP (DT (all))(RB (too))(RB (often)))(VP (VB (lead)))(PP (TO (to)))(NP (JJ (human))(NNS (attack))))(S (NP (DT (this))(NN (risk)))(VP (VBZ (have))(RB (alway))(VBN (be)))(ADJP (JJ (present))))(S (NP (RB (only)))(ADVP (RB (now)))(ADVP (RB (however)))(VP (VBP (be)))(NP (PRP (we)))(VP (VBG (begin))(TO (to))(VB (gain)))(NP (DT (a))(JJ (full))(NN (understand)))(PP (IN (of)))(NP (DT (the))(NN (impact)))(PP (IN (of)))(NP-REL (NN-REL (dog))(NNS (bite)))(PP (IN (on)))(NP (NNS (population))))) |BT| (ROOT (S (ADVP (WRB (when)))(VP (VBD (be)))(NP-REL (DT (the))(NN-REL (dog)))(VP-REL (VBN-REL (domesticate))))) |BT| (ROOT (S (NP-REL (RB (early))(JJ-REL (domesticate))(NNS-REL (dog)))(ADVP (RB (probably)))(VP (VBD (look)))(ADVP (RB (just)))(PP (IN (like)))(NP (NNS (wolf))))(S (NP (PRP (you)))(VP (MD (would))(VB (expect)))(SBAR (IN (that)))(NP (EX (there)))(VP (MD (would))(RB (n't))(VB (be)))(NP (RB (too))(JJ (many))(NNS (difference)))(NP-WIK (NNP-WIK (allman)))(VP (VBD (say))))(S (NP-REL (JJ (early))(NNS-REL (dog)))(VP (MD (would))(VB (have))(VBN (be))(VBG (perform)))(NP (RB (very))(JJ (wolflike))(NNS (function))))) |ET| 19:0.82281792 42:0.50184369 64:0.37686732 139:0.24370871 159:0.21190242 160:0.030642571 161:1.6551725 162:0.22997947 163:1.9310344 164:0.10677618 165:0.13114753 169:1.3333334 171:1.92 172:1.9400001 173:0.82281792  |BV| 19:0.52704626 42:0.30303031 64:0.22222222 139:0.10282357 159:0.087370403 161:1.5172414 162:0.40707964 163:1.5862069 164:0.2300885 165:0.1875 169:1 171:2 172:1.8293333 173:0.52704626  |EV| 
0.83729093963477874140721723961178  |BT| (ROOT (S (NP (WDT (what))(NN (duo)))(VP (VBD (lose)))(NP-REL (PRP$ (they))(NN-REL (grammy)))(PP (IN (for)))(NP (JJS (best))(JJ (new))(NN (artist)))(ADVP (WRB (when)))(NP (PRP (it)))(VP (VBD (be))(VBN (discover)))(SBAR (IN (that)))(NP (PRP (they)))(VP-REL (VBD-REL (lip-synch)))(NP-REL (PRP$ (they))(NNS-REL (song))))) |BT| (ROOT (S (NP-WIK (NNP-WIK (tedeschus)))(VP (MD (will))(RB (likewise))(VB (be))(VBN (boost)))(PP (IN (by)))(NP (DT (the))(JJ (same))(NNS (faction)))(NP (WDT (that)))(VP (VBD (drive)))(NP-WIK (NNP-WIK (bonnie))(NNP-WIK (raitt)))(NP-WIK (NNP-WIK (eric))(NNP-WIK (clapton)))(PP (TO (to-WIK)))(NP-REL (NNP-REL (grammy))(NN (success)))(PP (IN (in)))(NP (DT (the))(NNS ('90))))(S (NP-WIK (NNP-WIK (tedeschus)))(ADVP (RB (also)))(VP (VBZ (play)))(NP (PRP$ (her))(JJ (own))(NN (instrument))(-LRB- (-lrb-))(NN (guitar))(-RRB- (-rrb-)))(VP (VBZ (sing)))(NP-REL (PRP$ (her))(JJ (own))(NNS-REL (song))(-LRB- (-lrb-))(DT (no))(NN (question)))(PP (IN (of)))(NP-REL (NN-REL (lip-synch)))(NP (WDT (which)))(NP-REL (NNP-REL (grammy))(NNS (voter)))(VP (VBP (be))(RB (still))(VBG (explain)))(SBAR (IN (after)))(NP-WIK (NNP-WIK (milli))(NNP-WIK (vanillus)))(NP (POS ('))(JJ (bogus))(NN (win)))(PP (IN (in)))(NP (DT (this))(NN (category))(-RRB- (-rrb-)))(NP (PRP (she)))(VP (VBZ (have)))(NP (DT (a-WIK))(JJ (neat))(NN (indie))(NN (label)))(NP-WIK (NNP-WIK (tone-cool))(NNP-WIK (record))))(S (NP-WIK (NNP-WIK (tedeschus)))(NP (POS ('))(NN (win)))(VP (MD (will))(RB (also))(VB (be)))(NP (DT (a-WIK))(NN (way)))(PP (IN (for)))(NP-REL (NNP-REL (grammy))(NNS (voter)))(VP (TO (to-WIK))(VB (tweak)))(NP (DT (the))(JJ (major))(NNS (label)))(VP (VB (stand)))(PRT (RP (up)))(PP (IN (for)))(NP (DT (the))(JJ (artistic))(NN (underdog))))) |BT| (ROOT (S (NP-REL (WDT (what))(NN-REL (duo)))(VP (VBD (lose)))(NP-REL (PRP$ (they))(NN-REL (grammy)))(PP (IN (for)))(NP-REL (JJS (best))(JJ (new))(NN-REL (artist)))(ADVP (WRB (when)))(NP (PRP (it)))(VP (VBD (be))(VBN (discover)))(SBAR (IN (that)))(NP (PRP (they)))(VP (VBD (lip-synch)))(NP-REL (PRP$ (they))(NNS-REL (song))))) |BT| (ROOT (S (NP (NNP (tlc))(NNP (_)))(VP (VBD (nominate)))(PP (IN (for)))(NP-REL (CD (seven))(NNP-REL (grammy))(NNS (award)))(PP (IN (on-WIK)))(NP (NNP (tuesday)))(PP (VBG (include)))(NP (NN (album)))(PP (IN (of)))(NP (DT (the))(NN (year)))(VP (JJS (best)))(NP (NN (pop))(NN (performance)))(PP (IN (by)))(NP-REL (DT (a-WIK))(NN-REL (duo))(CC (or))(NN (group)))(PP (IN (with)))(NP (NN (vocal)))(PP (IN (for)))(NP-REL (DT (the))(NN-REL (song))(`` (``))(NNP (unpretty))('' (''))(NN (_)))(VP (VBZ (appear)))(NP-REL-WIK (RB (tonight))(IN (with))(JJS (best))(JJ (new))(NN-REL (artist))(NNP-REL (grammy))(NN (nominee))(NNP-WIK (christina))(NNP-WIK (aguilera)))(NP-WIK (NNP-WIK (blaque)))(PP (IN (at)))(NP-WIK (DT (the))(NNP-WIK (pond)))(PP (IN (in-WIK)))(NP-WIK (NNP-WIK (anaheim))))) |ET| 19:0.33072424 42:0.20085672 64:0.14725688 139:0.32819375 159:0.28476727 160:0.068191506 161:1.4639175 162:0.52931321 163:1.628866 164:0.073701844 165:0.15789473 169:0.70588237 171:1.8568628 172:1.7579739 173:0.33072424  |BV| 19:0.48507124 42:0.33836395 64:0.26130983 65:0.1029749 85:0.070014007 86:0.03571998 139:0.34438437 159:0.30184293 160:0.093947463 161:1.1546391 162:0.70914125 163:1.3195876 164:0.18836565 165:0.26923078 166:0.061538462 167:0.03125 169:0.82352942 170:0.22222222 171:1.8 172:1.6949767 173:0.48507124  |EV| 
0.83729093963477874140721723961178  |BT| (ROOT (S (ADVP (WRB (how)))(NP-REL-WIK (NNP-REL-WIK (john))(NNP-REL-WIK (dillinger)))(VP (VB (die))))) |BT| (ROOT (S (NP-REL-WIK (NNP-WIK (hoosier))(NN (gangster))(NNP-REL-WIK (john))(NNP-REL-WIK (dillinger)))(VP (VBD (be))(VBN (gun)))(PRT (RP (down)))(PP (IN (in-WIK)))(NP-WIK (NNP-WIK (chicago))(CD (one))(NN (night)))(PP (IN (in-WIK)))(NP (CD (1934))))(S (NP (DT (the))(NN (morn))(NNS (papers)))(VP (VBD (have)))(NP (PRP (it)))(ADVP (RB (first)))(NP (DT (the))(NNP (news)))(VP (VBD (have)))(NP (DT (a-WIK))(`` (``)))(NP (NN (today))(NN (angle)))(NP (DT (the))(JJ (follow))(NN (afternoon)))(NP (IN (that)))(VP (RB (surely))(VBN (lead)))(NP (JJS (most))(NNS (reader)))(VP (TO (to))(VB (read)))(PP (IN (on)))(NP-REL-WIK (NNP-REL-WIK (john))(NNP-REL-WIK (dillinger)))(VP (VBD (lay)))(PP (IN (on)))(NP (DT (a-WIK))(JJ (cold))(NN (slab)))(PP (IN (in-WIK)))(NP-WIK (DT (the))(NNP-WIK (cook))(NNP-WIK (county))(JJ (morgue)))(NP (NN (today))))) |BT| (ROOT (S (ADVP (WRB (how)))(NP-REL-WIK (NNP-REL-WIK (john))(NNP-REL-WIK (dillinger)))(VP (VB (die))))) |BT| (ROOT (S (NP (CD (24))))(S (NP-WIK (DT (the))(NNP-WIK (ford))(CD (v-8))(NNS (win)))(NP (JJ (high))(NN (praise))(NN (_)))(PP (IN (from)))(NP-REL-WIK (NNP-REL-WIK (john))(NNP-REL-WIK (dillinger)))(NP-WIK (NNP-WIK (clyde))(NNP-WIK (barrow))))) |ET| 19:0.33686078 42:0.29250896 64:0.21431988 65:0.12433398 85:0.08856149 139:0.32863942 159:0.28459048 160:0.060338847 161:1.4074074 162:0.33766234 163:1.925926 164:0.20779221 165:0.083333336 166:0.033333335 169:0.66666669 170:0.40000001 171:1.7333333 172:1.7170371 173:0.33686078  |BV| 19:0.38490018 42:0.31491834 64:0.22597307 65:0.1237969 85:0.089087084 139:0.39741307 159:0.33756998 160:0.08703883 161:1.4074074 162:0.95049506 163:1.7777778 164:0.63366336 165:0.21052632 166:0.10526316 169:0.66666669 170:0.40000001 171:1.6533333 172:1.5448148 173:0.38490018  |EV| 
0.17366919417305370920701079739956  |BT| (ROOT (S (ADVP (WRB (how))(JJ (much)))(NP (DT (the))(JJ (first)))(NP-REL (NNP-REL (barbie))(VB-REL (cost))))) |BT| (ROOT (S (NP (NNS (price)))(NP-REL (NNP-REL (barbie)))(VP-REL (VBD-REL (cost)))(NP ($ ($))(CD (3)))(PP (IN (in)))(NP (CD (1959))))(S (NP (DT (the))(JJ (average))(NN (price)))(ADVP (RB (now)))(NP (NNS (average)))(NP ($ ($))(CD (10))))) |BT| (ROOT (S (ADVP (WRB (how))(JJ (much)))(NP (DT (the))(JJ (first)))(NP-REL (NNP-REL (barbie))(VB (cost))))) |BT| (ROOT (S (NP (CD (40))(NNS (year)))(PP (IN (of)))(NP (DT (the)))(NP-REL-WIK (NNP-REL-WIK (barbie))(NNP (doll)))(VP (MD (will))(VB (feature)))(NP (JJR (more))(IN (than))(CD (80))(NNS (barby)))(VP (VBN (ship)))(PP (IN (from)))(NP-WIK (NN (dollmaker))(NNP-WIK (mattel)))(PP (VBG (include)))(NP (NNP (engineer))(CC (and))(NNP (veterinarian)))(NP-REL-WIK (NNP-REL-WIK (barbie)))(NP (NNP (designer))(NNPS (clothe)))(NP-REL-WIK (NNP-REL-WIK (barbie)))(NP-REL-WIK (DT (the))(JJ (first))(JJ-WIK (african-american))(NNP-REL-WIK (barbie)))(PP (IN (from)))(NP (CD (1980)))(NP (DT (a-WIK))(JJ (large))(NN (batch)))(PP (IN (of)))(NP (JJ (international))(NNS (barby)))(PP (VBG (include)))(NP (NNP (thaus)))(NP-REL-WIK (NNP-REL-WIK (barbie)))(NP-WIK (NNP-WIK (nigerian)))(NP-REL-WIK (NNP-REL-WIK (barbie)))(NP-WIK (NNP-WIK (arctic)))(NP-REL-WIK (NNP-REL-WIK (barbie))))) |ET| 19:0.42426407 42:0.32259113 64:0.23328474 65:0.0996271 85:0.070272841 139:0.20851441 159:0.1711842 160:0.033671752 161:1.2 162:0.60952383 163:0.91428572 164:0.4952381 165:0.33333334 166:0.090909094 169:0.75 170:0.2857143 171:1.4476191 172:1.5777777 173:0.42426407  |BV| 19:0.62994081 42:0.41762951 64:0.31184506 65:0.052649811 85:0.037037037 139:0.29171383 159:0.25117895 160:0.049266465 161:1.2 162:0.37209302 163:1.8285714 164:0.12790698 165:0.14285715 166:0.035714287 169:0.75 170:0.2857143 171:1.6571429 172:1.681746 173:0.62994081  |EV| 
-0.8019941001247091749704054564063  |BT| (ROOT (S (NP (WDT (what))(NN (branch)))(PP (IN (of)))(NP-REL (DT (the))(NN-REL (military)))(VP (VBZ (have)))(NP-REL (PRP$ (its))(NN-REL (academy)))(PP (IN (in)))(NP-WIK (NNP-WIK (annapolis))))) |BT| (ROOT (S (ADVP (JJ (similar)))(PP (TO (to)))(NP-WIK (PRP$ (her))(JJ-WIK (american))(NNS (counterpart)))(PP (IN (at)))(NP-REL (JJ-REL (military))(NNS-REL (academy)))(PP (JJ (such))(IN (as)))(NP-WIK (NNP-WIK (annapoli)))(NP (NNP (west))(NNP (point)))(NP (WP (who)))(ADVP (RB (first)))(VP (VBD (gain)))(NP (NN (entry)))(PP (IN (in)))(NP (DT (the))(NNS (1970))(-RRB- (-rrb-)))(NP (PRP (she)))(VP (VBZ (have)))(NP (NNS (tale)))(PP (IN (of)))(NP (JJ (difficult))(NNS (day)))(PP (IN (in)))(NP (DT (an-WIK))(RB (overwhelmingly))(JJ (male))(NN (domain))))) |BT| (ROOT (S (NP (WDT (what))(NN (branch)))(PP (IN (of)))(NP (DT (the))(NN (military)))(VP (VBZ (have)))(NP-REL (PRP$ (its))(NN-REL (academy)))(PP (IN (in)))(NP-WIK (NNP-WIK (annapolis))))) |BT| (ROOT (S (NP (CD (1954-58)))(NP-REL (NNS (attend))(NNP (naval))(NNP-REL (academy)))(PP (IN (in)))(NP-WIK (NNP-WIK (annapoli)))(NP-WIK (NNP-WIK (md))))) |ET| 19:0.68476236 42:0.35756662 64:0.24710158 139:0.32810897 159:0.27720797 160:0.099258333 161:1.3220339 162:0.66409266 163:1.4576272 164:0.15444015 165:0.30000001 169:1.0909091 171:1.96 172:1.8111111 173:0.68476236  |BV| 19:0.38138503 42:0.3003757 64:0.21081851 65:0.11128297 85:0.078567423 139:0.22786635 159:0.19153272 160:0.075809807 161:0.67796612 162:1.037037 163:0.94915253 164:0.74074072 165:0.21052632 166:0.11111111 169:0.36363637 170:0.2 171:1.39 172:1.3363889 173:0.38138503  |EV| 
-0.83729093963477874140721723961178  |BT| (ROOT (S (NP (WP (what)))(NP-REL (NNP (e))(NNP-REL (pluribus))(NNP-REL (unum))('' ("))(VB-REL (mean))))) |BT| (ROOT (S (PP (IN (in)))(NP (CD (1994)))(NP-WIK (NNP-WIK (gore)))(VP (VBD (tell)))(NP-WIK (DT (a-WIK))(NNP-WIK (milwaukee))(NN (audience)))(SBAR (IN (that)))(NP (PRP$ (their))(NN (city)))(NP (POS ('))(JJ (ethnic))(NN (diversity)))(VP (VBZ (show)))(SBAR (IN (that)))(NP-WIK (NNP-WIK (america)))(VP (MD (can))(VB (be)))(NP-REL (NN (e-WIK))(NN-REL (pluribus))(NN-REL (unum))))(S (PP (IN (out)))(PP (IN (of)))(NP (CD (one)))(NP (JJ (many))))(S (NP (DT (the))(JJ (national))(NN (motto)))(ADVP (RB (actually)))(VP-REL (VBZ-REL (mean)))(NP (DT (the))(NN (opposite)))(PP (IN (out)))(PP (IN (of)))(NP (JJ (many)))(NP (CD (one))))) |BT| (ROOT (S (NP (WP (what)))(NP-REL (NNP (e))(NNP-REL (pluribus))(NNP-REL (unum))('' ("))(VB (mean))))) |BT| (ROOT (S (NP-REL (NNP (e))(NN-REL (pluribus))(NN-REL (unum))))(S (PP (IN (out)))(PP (IN (of)))(NP (JJ (many)))(NP (CD (one))))) |ET| 19:0.28829998 42:0.25451392 64:0.21638563 65:0.16239959 85:0.11310693 86:0.059470102 139:0.17556588 159:0.15044837 161:1.5882353 162:0.49799198 163:1.8235294 164:0.27309236 165:0.2 166:0.079999998 167:0.039999999 169:1 170:0.5 171:1.9333333 172:1.8333334 173:0.28829998  |BV| 19:0.52223295 42:0.50062615 64:0.43701422 65:0.37573457 85:0.26726124 86:0.14322297 139:0.15386437 159:0.12824729 161:0.94117647 162:1.1830986 163:1.2352941 164:0.90140843 165:0.42857143 166:0.26666668 167:0.14285715 169:0.75 170:0.5 171:1.7333333 172:1.6814815 173:0.52223295  |EV| 
-0.83729093963477874140721723961178  |BT| (ROOT (S (NP (WDT (what))(NN (country)))(VP (VBD (be)))(NP-REL (DT (the))(NN-REL (battle)))(PP (IN (of)))(NP-REL-WIK (NNP-REL-WIK (verdun)))(VP-REL (VBN-REL (fight)))(PP (RP (in))))) |BT| (ROOT (S (NP (PRP$ (his))(NN (office)))(PP (IN (in)))(NP-WIK (DT (the))(NNP (russell))(NNP-WIK (senate))(NNP (build)))(VP (VBZ (be)))(NP (DT (a-WIK))(JJ (historical))(NN (anecdote))))(S (PP (IN (on)))(NP (CD (one))(NN (wall)))(VP (VBZ (hang)))(NP (DT (a-WIK))(NN (photograph)))(PP (IN (of)))(NP (PRP$ (his))(NN (father)))(NP (DT (a-WIK))(NN (field))(NN (surgeon)))(PP (IN (at-WIK)))(NP-REL (DT (the))(NNP-REL (battle)))(PP (IN (of)))(NP-REL-WIK (NNP-REL-WIK (verdun)))(PP (IN (in)))(NP-WIK (NNP-WIK (world))(NNP-WIK (war))(NNP (i)))(PP (IN (with)))(NP (DT (a-WIK))(NN (great-uncle)))(NP (WP (who)))(VP-REL (VBD-REL (fight)))(PP (IN (in)))(NP-WIK (NNP-WIK (robert))(NNP-WIK (e.))(NNP-WIK (lee)))(NP-WIK (POS ('))(NNP-WIK (confederate))(NNP-WIK (army))))(S (PP (IN (on)))(NP (DT (an))(JJ (opposite))(NN (wall)))(VP (VBZ (be)))(NP-WIK (DT (the))(CD (1991))(NNP-WIK (gulf))(NNP-WIK (war))(NN (resolution)))(NP (WDT (which)))(NP-WIK (NNP-WIK (warner)))(VP (VBD (sponsor)))(NP-WIK (DT (the))(NNP-WIK (senate)))(VP (VBD (pass)))(NP (CD (52)))(PP (TO (to)))(NP (CD (47))))) |BT| (ROOT (S (NP (WDT (what))(NN (country)))(VP (VBD (be)))(NP-REL (DT (the))(NN-REL (battle)))(PP (IN (of)))(NP-REL-WIK (NNP-REL-WIK (verdun)))(VP (VBN (fight)))(PP (RP (in))))) |BT| (ROOT (S (PP (IN (in)))(NP (CD (1916)))(NP-REL (DT (the))(NNP (world))(NNP (war))(NNP (i))(NNP-REL (battle)))(PP (IN (of)))(NP-REL-WIK (NNP-REL-WIK (verdun)))(VP (VBD (begin)))(PP (IN (in)))(NP-WIK (NNP-WIK (france))))) |ET| 19:0.7677719 42:0.60887742 64:0.48830608 65:0.28595257 85:0.225913 86:0.13235652 139:0.44716185 159:0.38609368 160:0.11021668 161:1.5744681 162:0.43076923 163:1.7872341 164:0.22564103 165:0.25925925 166:0.1369863 167:0.053333335 168:0.027027028 169:1.4 170:1.1111112 171:1.9555556 172:1.8875101 173:0.7677719  |BV| 19:0.94868332 42:0.68162292 64:0.5410018 65:0.29104275 85:0.20412415 86:0.10767638 139:0.28198081 159:0.23814483 160:0.060192928 161:1.106383 162:1.0841122 163:1.2340425 164:0.67289722 165:0.55555558 166:0.2 167:0.10526316 169:1 170:0.44444445 171:1.8666667 172:1.7120636 173:0.94868332  |EV| 
0.83729093963477874140721723961178  |BT| (ROOT (S (NP (WP (who)))(VP (VBD (be)))(NP-REL (DT (the))(JJ (first))(NN-REL (woman)))(VP-REL (TO (to))(VB-REL (run)))(PP (IN (for)))(NP-REL (NN-REL (president))))) |BT| (ROOT (S (NP-WIK (NNP-WIK (pamfilova)))(VP (VBZ (be)))(NP-REL (DT (the))(JJ (first))(NN-REL (woman)))(VP-REL (TO (to))(VB-REL (run)))(PP (IN (for)))(NP-REL (NN-REL (president)))(PP (IN (in)))(NP-WIK (NNP-WIK (russium))))) |BT| (ROOT (S (NP (WP (who)))(VP-REL (VBD-REL (be)))(NP-REL (DT (the))(JJ (first))(NN-REL (woman)))(VP-REL (TO (to))(VB-REL (run)))(PP (IN (for)))(NP-REL (NN-REL (president))))) |BT| (ROOT (S (NP (PRP (it)))(VP-REL (VBZ-REL (be)))(ADVP (RB (just)))(NP (DT (the))(JJ (whole))(NN (idea)))(PP (IN (of)))(NP (PRP$ (her)))(VP (VBG (be)))(NP-REL (DT (the))(JJ (first))(NN-REL (woman)))(VP-REL (VBG-REL (run)))(PP (IN (for)))(NP-REL (NN-REL (president)))(NP-WIK (NNP-WIK (laura))(NNP-WIK (bogan)))(NP (DT (a-WIK))(JJ (senior))(NN (major)))(PP (IN (in)))(NP (NN (business))(CC (and))(NN (market)))(VP (VBD (say))))(S (NP (PRP (i)))(VP (VBP (think)))(NP (PRP (it)))(VP-REL (VBZ-REL (be)))(NP (RB (just))(NN (kind)))(PP (IN (of)))(NP (JJ (neat)))(SBAR (IN (that)))(NP (PRP (she)))(VP-REL (VBZ-REL (be))(VBG-REL (run))))) |ET| 19:1.4605935 42:1.4350946 64:1.407053 65:1.376066 85:1.3416408 86:1.3031676 139:0.65417111 159:0.62546277 160:0.559017 161:1.8222222 162:1.5700935 163:1.8666667 164:1.5327103 165:1.1428572 166:1.0769231 167:1 168:0.90909094 169:1.6 170:1.5555556 171:1.8962963 172:1.9377778 173:1.4605935  |BV| 19:0.84852815 42:0.68676358 64:0.58191437 65:0.39813808 85:0.31277162 86:0.21895222 139:0.43100545 159:0.36049205 160:0.1692508 161:1.8222222 162:0.68907565 163:1.8222222 164:0.33613446 165:0.3888889 166:0.21276596 167:0.125 168:0.040816326 169:1.4 170:1.1111112 171:1.9111111 172:1.9051852 173:0.84852815  |EV| 
0.83729093963477874140721723961178  |BT| (ROOT (S (PP (IN (in)))(NP (WDT (which))(NN (city)))(NP (PRP (you)))(VP (VB (find)))(NP-REL (DT (the))(NNP-REL (louvre))))) |BT| (ROOT (S (NP-WIK (NNS-WIK (pari)))(PP (IN (from)))(NP-REL-WIK (DT (the))(NNP-REL-WIK (louvre)))(PP (TO (to)))(NP (DT (the))(NNPS (sewer))))) |BT| (ROOT (S (PP (IN (in)))(NP-REL (WDT (which))(NN-REL (city)))(NP (PRP (you)))(VP-REL (VB-REL (find)))(NP-REL (DT (the))(NNP-REL (louvre))))) |BT| (ROOT (S (NP-WIK (NNP-WIK (berlin))(NNP (_))(NNP (imagine)))(VP-REL (VBG-REL (find)))(NP (DT (a))(JJ (vacant))(NN (lot)))(PP (IN (on)))(NP (DT (the))(NNS (bank)))(PP (IN (of)))(NP-WIK (DT (the))(NNP-WIK (seine)))(PP (IN (opposite)))(NP-REL-WIK (DT (the))(NNP-REL-WIK (louvre)))(VP (VBG (use)))(NP (PRP (it)))(ADVP (RB (periodically)))(PP (IN (as)))(NP (DT (a))(NN (discotheque))))(S (ADJP (JJ (unthinkable)))(PP (IN (of)))(NP (NN (course))))(S (PP (IN (in-WIK)))(NP-WIK (NNP-WIK (berlin)))(ADVP (WRB (where)))(NP-WIK (DT (the))(NNP-WIK (kunst))(NN-WIK (und))(NNP-WIK (technik))(NN (club)))(VP (VBZ (open)))(NP (PRP$ (its))(NNS (door)))(PP (IN (from)))(NP (NN (time)))(PP (TO (to)))(NP (NN (time)))(VP (VBZ (demonstrate)))(NP (IN (that)))(ADVP (RB (right))(RB (now)))(PP (IN (in-WIK)))(NP-REL (DT (this))(NN-REL (city)))(NP (NN (anything)))(VP (VBZ (be)))(ADJP (JJ (possible))))) |ET| 19:0.60302269 42:0.4451319 64:0.32025629 65:0.13333334 85:0.095238097 139:0.20016019 159:0.1613743 160:0.047619049 161:0.58536583 162:0.82051283 163:0.78048778 164:0.61538464 165:0.26666668 166:0.13333334 169:0.44444445 170:0.25 171:1.275 172:1.1986111 173:0.60302269  |BV| 19:0.5410018 42:0.35663149 64:0.26028961 65:0.04656202 85:0.032262262 139:0.34503278 159:0.2928223 160:0.041654617 161:1.2682927 162:0.35530087 163:1.5121951 164:0.13753581 165:0.19607843 166:0.028985508 169:1.1111112 170:0.25 171:1.7166667 172:1.7311112 173:0.5410018  |EV| 
-0.64095241411485592841756897541927  |BT| (ROOT (S (ADVP (WRB (where)))(VP (VBD (be)))(NP-REL (DT (the))(NNP-REL (andersonville))(NN (prison))))) |BT| (ROOT (S (NP-REL (DT (the))(NNP-REL (andersonville))(NNP (trial)))(NP (CD (1959))))) |BT| (ROOT (S (ADVP (WRB (where)))(VP (VBD (be)))(NP-REL (DT (the))(NNP-REL (andersonville))(NN-REL (prison))))) |BT| (ROOT (S (NP (NN (q)))(NP (PRP (we)))(ADVP (RB (alway)))(VP (VBP (hear)))(NP (DT (a-WIK))(NN (lot)))(PP (IN (about)))(NP-REL-WIK (NNP-REL-WIK (andersonville)))(NP-REL-WIK (DT (the))(NNP-WIK (civil))(NNP-WIK (war))(NN-REL (prison))(NN (camp)))(PP (IN (in)))(NP-WIK (NNP-WIK (south))(NNP-WIK (georgium)))(ADVP (WRB (where)))(NP (JJ (many))(JJ (northern))(NNS (soldier)))(VP (VBD (die))))(S (NP (PRP (i)))(VP (VBP (understand)))(NP (DT (a-WIK))(NN (prisoner)))(PP (IN (of)))(NP-WIK (NN-WIK (war))(NN (camp)))(PP (IN (in)))(NP-WIK (NNP-WIK (delaware)))(VP (VBD (be)))(PP (RB (just))(IN (as)))(ADJP (JJ (notorious)))(NP (DT (no))(NN (one)))(ADVP (RB (ever)))(VP (VBZ (mention)))(SBAR (IN (that))))(S (NP (PRP (you)))(VP (VB (have)))(NP (DT (any))(NN (information))))) |ET| 19:0.73029673 42:0.60302269 64:0.44721359 65:0.25197631 85:0.19245009 139:0.27602622 159:0.23570226 160:0.096225046 161:1.0285715 162:1.2923077 163:1.2 164:1.1076924 165:0.44444445 166:0.25 169:0.66666669 170:0.40000001 171:1.5066667 172:1.5832479 173:0.73029673  |BV| 19:0.61721343 42:0.33739293 64:0.24194334 139:0.38210854 159:0.32735464 160:0.061390914 161:1.8285714 162:0.4275862 163:1.7714286 164:0.20689656 165:0.26666668 169:2 171:2 172:2 173:0.61721343  |EV| 
0.83729093963477874140721723961178  |BT| (ROOT (S (ADVP (WRB (how)))(NP-REL-WIK (NNP-REL-WIK (john))(NNP-REL-WIK (dillinger)))(VP (VB (die))))) |BT| (ROOT (S (NP (PRP$ (my))(NN (take)))(VP (VBZ (be)))(SBAR (IN (that)))(NP (PRP (it)))(VP (VBZ (be)))(ADJP (JJ (bulletproof)))(NP-WIK (NNP-WIK (wice)))(VP (VBD (say))))(S (NP (PRP (they)))(VP (VBD (cut)))(PP (TO (to)))(NP (DT (the))(NN (chase)))(NP (PRP$ (their))(NN (reason)))(VP (VBZ (be)))(ADJP (JJ (compel)))(NP (PRP (they)))(VP (VBD (shoot)))(NP (RBR (more))(NNS (hole)))(PP (IN (in-WIK)))(NP (DT (the))(VBG (dissent))(NN (opinion)))(SBAR (IN (than)))(NP (DT (the))(NNS (fed)))(VP (VBN (put)))(PP (IN (in-WIK)))(NP-REL-WIK (NNP-REL-WIK (john))(NNP-REL-WIK (dillinger))))) |BT| (ROOT (S (ADVP (WRB (how)))(NP-REL-WIK (NNP-REL-WIK (john))(NNP-REL-WIK (dillinger)))(VP (VB (die))))) |BT| (ROOT (S (NP (EX (there)))(VP (VBZ (be)))(NP-WIK (DT (the))(JJ-WIK (slippery))(NNP-WIK (noodle))(NNP-WIK (inn)))(NP (DT (a))(NNS (blues))(NN (bar)))(NP (WDT (that)))(VP (VBZ (be)))(NP (DT (the))(NN (state)))(NP (POS ('))(JJS (oldest)))(VP (VBD (be)))(NP (DT (a))(JJ (favorite))(NN (hangout)))(PP (IN (of)))(NP-REL-WIK (JJ (public))(NN (enemy))(NNP-REL-WIK (john))(NNP-REL-WIK (dillinger))))) |ET| 19:0.20100756 42:0.17488921 64:0.12777531 65:0.074074075 85:0.052704629 139:0.20427197 159:0.17248787 160:0.025125945 161:1.1851852 162:0.42396313 163:1.7037038 164:0.29493088 165:0.11111111 166:0.044444446 169:0.66666669 170:0.40000001 171:1.6533333 172:1.6666666 173:0.20100756  |BV| 19:0.25503069 42:0.21469688 64:0.15649216 65:0.088302158 85:0.063372426 139:0.24597602 159:0.20826304 160:0.061199006 161:1.1851852 162:0.51219511 163:1.5555556 164:0.39024389 165:0.14285715 166:0.064516127 169:0.66666669 170:0.40000001 171:1.6266667 172:1.5925926 173:0.25503069  |EV| 
0.35624448465564817478679060513969  |BT| (ROOT (S (NP (WP (who)))(VP-REL (VBD-REL (paint)))(NP (`` ("))(NNP (sunflowers))('' ("))))) |BT| (ROOT (S (ADVP (RB (then)))(VP (VBG (open)))(PP (IN (at)))(NP (DT (the))(NNP (art))(NNP (institute)))(PP (IN (of)))(NP-WIK (NNP-WIK (chicago)))(PP (IN (in-WIK)))(NP (NNP (september))(CD (2001)))(VP (VBZ (come)))(NP-WIK (NNP-WIK (van))(NNP-WIK (gogh)))(NP-WIK (NNP-WIK (gauguin)))(NP (DT (the))(NNP (studio)))(PP (IN (of)))(NP (DT (the))(NNP (south)))(NP (DT (a-WIK))(JJ (join))(NN (effort)))(PP (IN (with)))(NP-WIK (DT (the))(NNP-WIK (van))(NNP-WIK (gogh))(NNP-WIK (museum)))(PP (IN (in-WIK)))(NP-WIK (NNP-WIK (amsterdam))))(S (NP (PRP (it)))(VP (MD (will))(VB (examine)))(NP (DT (the))(JJ (complex))(NN (relationship)))(PP (IN (between)))(NP (DT (the))(NNS (man)))(NP (WP (who)))(VP (VBD (want))(TO (to))(VB (start)))(NP (DT (an-WIK))(NNS (artist)))(NP (POS ('))(NN (colony)))(VP (TO (to))(VB (reinvigorate)))(NP (NN (art)))(PP (IN (in-WIK)))(NP-WIK (NNP-WIK (france)))(VP (VBD (choose)))(NP (DT (the))(NN (sunflower)))(PP (IN (as)))(NP (PRP$ (its))(NN (symbol))))(S (NP (DT (that)))(VP (VBD (spawn)))(NP (NN (part)))(PP (IN (of)))(NP (DT (the))(NN (problem))))(S (NP-WIK (NNP-WIK (gauguin)))(VP (VBD (have))(RB (so))(VBN (admire)))(NP-WIK (NNP-WIK (van))(NNP-WIK (gogh)))(NP (POS ('))(JJ (early))(NN (sunflower))(NNS (painting)))(NP (WDT (that)))(NP-WIK (NNP-WIK (van))(NNP-WIK (gogh)))(CONJP (RB (not))(RB (only)))(VP-REL (VBN-REL (paint)))(NP (JJR (more))(NNS (version)))(VP (VBN (copy)))(NP (DT (some)))(PP (IN (of)))(NP (PRP (them))))) |BT| (ROOT (S (NP (WP (who)))(VP-REL (VBD-REL (paint)))(NP (`` ("))(NNP (sunflowers))('' ("))))) |BT| (ROOT (S (NP-WIK (NNP-WIK (de))(NNP-WIK (roberti)))(VP (VBZ (be-WIK)))(PP (IN (among)))(NP (DT (those)))(NP (WP (who)))(VP (VBP (have))(VBN (challenge)))(NP (DT (the))(NN (authenticity)))(PP (IN (of)))(NP-REL (DT (the))(`` (``))(NNP (sunflower))('' (''))(NN-REL (paint)))(VP (VBN (buy)))(PP (IN (by)))(NP-WIK (DT (the))(NNP-WIK (yasuda))(NNP-WIK (marine)))(NP-WIK (NNP-WIK (fire))(NNP-WIK (insurance))(NNP-WIK (co.)))(PP (IN (for)))(NP ($ (dlr))(CD (39.9))(CD (million)))(PP (IN (for)))(PP (IN (in-WIK)))(NP (CD (1987))))) |ET| 19:0.092057459 42:0.059384841 64:0.045886166 139:0.23881263 159:0.20902981 160:0.027036903 161:1.5384616 162:0.17424242 163:1.7692307 164:0.075757578 165:0.055555556 169:0.80000001 171:2 172:1.9866667 173:0.092057459  |BV| 19:0.22086306 42:0.1298455 64:0.095130302 139:0.25993761 159:0.2227177 160:0.082199492 161:1.5384616 162:0.42211056 163:1.6153846 164:0.20100503 165:0.12121212 169:0.80000001 171:2 172:1.9866667 173:0.22086306  |EV| 
0.83729093963477874140721723961178  |BT| (ROOT (S (ADVP (WRB (where)))(VP (VBZ (be)))(NP-REL (NN-REL (bile)))(VP-REL (VBN-REL (produce))))) |BT| (ROOT (S (NP-WIK (NNP-WIK (biochemical))(NNS (datum)))(VP (VBD (add)))(NP (NN (support)))(PP (TO (to)))(NP (DT (the))(NN (hypothesis)))(NP-REL (NNP (fiber))(NNS (bind))(NN-REL (bile))(NNS (acid)))(NP (WDT (which)))(VP (VBP (be)))(NP (NNS (chemical)))(VP-REL (VBN-REL (produce)))(PP (IN (by)))(NP (DT (the))(NN (liver)))(VP (VBN (secrete)))(PP (IN (into)))(NP (DT (the))(NN (bowel))))(S (NP-REL (JJ-REL (bile))(NNS (acid)))(VP (MD (can))(VB (damage)))(NP (NNS (cell)))(VP (RB (possibly))(VB (cause)))(NP (NN (cancer))))(S (NP (DT (the))(RBR (more))(JJ (fat))(IN (that)))(NP (NNS (people)))(VP (VBP (eat)))(NP-REL (DT (the))(JJR (more))(NN-REL (bile))(NNS (acid)))(SBAR (IN (that)))(NP (PRP (they)))(VP (VBP (secrete))))(S (NP (DT (a-WIK))(JJ (low-fat))(NN (diet)))(VP (MD (might))(VB (work)))(PP (IN (with)))(NP (DT (a-WIK))(NN (high-fiber)))(NP (CD (one)))(VP (TO (to))(VB (protect)))(PP (IN (against)))(NP (NN (colon))(NN (cancer)))(NP (NNS (researcher)))(VP (VBD (think))))) |BT| (ROOT (S (ADVP (WRB (where)))(VP (VBZ (be)))(NP-REL (NN-REL (bile)))(VP-REL (VBN-REL (produce))))) |BT| (ROOT (S (NP-WIK (JJ-WIK (chinese))(NNS (official)))(VP (VBP (defend)))(NP (JJ (bear-bile))(NN (farm)))(PP (IN (as)))(NP (DT (the))(JJS (safest))(NN (way)))(VP (TO (to))(VB (meet)))(NP (DT (the))(NN (demand))))(S (SBAR (IN (if)))(NP (CD (one))(NN (bear)))(PP (IN (on-WIK)))(NP (DT (a-WIK))(NN (farm)))(VP-REL (VBZ-REL (produce)))(NP-REL (NN-REL (bile)))(PP (IN (for)))(NP (CD (10))(NNS (year)))(ADVP (RB (then)))(NP (DT (the))(NNS (life)))(PP (IN (of)))(NP (CD (400))(JJ (wild))(NNS (bear)))(VP (MD (will))(VB (be))(VBN (save)))(VP (VBD (say)))(NP-WIK (NNP-WIK (fang))(NNP-WIK (zhiyong)))(NP (DT (a-WIK))(JJ (senior))(NN (wildlife))(NN (official)))(PP (IN (in-WIK)))(NP (DT (a-WIK))(JJ (recent))(NN (newspaper))(NN (interview))))) |ET| 19:0.3863337 42:0.22947612 64:0.17282528 139:0.20793648 159:0.18159243 161:1.826087 162:0.21483377 163:1.826087 164:0.092071608 165:0.11538462 169:1.2 171:1.8333334 172:1.8444444 173:0.3863337  |BV| 19:0.28934568 42:0.16963778 64:0.1253268 139:0.21516573 159:0.18732446 160:0.023688968 161:1.4782609 162:0.26855123 163:1.6521739 164:0.12720849 165:0.13333334 169:1.2 171:1.8333334 172:1.8444444 173:0.28934568  |EV| 
-0.4924416040652996873205893280101  |BT| (ROOT (S (PP (IN (in)))(NP (WDT (which))(NN (country)))(VP (VBZ (be)))(NP-REL-WIK (NNP-REL-WIK (timbuktu))))) |BT| (ROOT (S (NP (NNP (timbuktu-book-review))(-LRB- (-lrb-))(NNP (undate))(-RRB- (-rrb-))(VBZ (_)))(NP-REL-WIK (NNP-REL-WIK (timbuktu)))(PP (IN (by)))(NP-WIK (NNP-WIK (paul))(NNP-WIK (auster)))(VP (VBZ (be))(VBN (review)))(PP (IN (by)))(NP-WIK (NNP-WIK (michiko))(NNP-WIK (kakutanus))))) |BT| (ROOT (S (PP (IN (in)))(NP (WDT (which))(NN (country)))(VP (VBZ (be)))(NP-REL-WIK (NNP-REL-WIK (timbuktu))))) |BT| (ROOT (S (NP-REL-WIK (JJ (newyear-timbuktu))(-LRB- (-lrb-))(NN-REL-WIK (timbuktu)))(NP-WIK (NNP-WIK (malus)))(PP (IN (by)))(NP-WIK (NNP-WIK (norimitsu))(NNP-WIK (onishus))))(S (NP (-LRB- (-lrb-))(CD (700))))) |ET| 19:0.34050262 42:0.18835264 64:0.1356127 139:0.32003787 159:0.27297434 160:0.037582301 161:1.0666667 162:0.52173913 163:1.2 164:0.28985506 165:0.19047619 169:0.66666669 171:1.5599999 172:1.5053968 173:0.34050262  |BV| 19:0.19245009 42:0.10830607 64:0.078749925 139:0.27852425 159:0.23210354 160:0.048112523 161:0.66666669 162:0.58620691 163:1.1333333 164:0.34482759 165:0.11764706 169:0.33333334 171:1.368 172:1.3285714 173:0.19245009  |EV| 
0.46954529976799252999342115799664  |BT| (ROOT (S (NP (WP (what)))(VP (VBZ (be)))(NP-REL-WIK (DT (a-WIK))(JJ-WIK (indian))(NN-REL (flute)))(VP-REL (VBN-REL (make)))(PP (IN (of))))) |BT| (ROOT (S (NP-REL (NNS-REL (flute)))(NP (NNS (whistle)))(VP (VBD (kindr)))(NP (NNS (instrument)))(VP (VBP (date)))(PP (TO (to)))(NP (NN (humanity)))(NP (POS ('))(JJ (early))(NNS (day)))(ADVP (WRB (when)))(NP (PRP (they)))(VP (VBD (be))(VBN (use)))(PP (IN (in)))(NP (NN (hunt)))(VP (VBG (signal))(, (,)))(NP (NN (magic))(CC (and))(NN (ritual))))(S (NP-WIK (DT (the))(NNP (maya))(CC (and))(NNP-WIK (inca)))(VP-REL (VBD-REL (make)))(NP-REL (NNS-REL (flute)))(PP (IN (of)))(NP (NN (clay)))(SBAR (IN (that)))(NP (JJ (modern))(NNS (scholar)))(VP (VBP (have))(VBN (find))(TO (to))(VB (be)))(ADJP (RB (surprisingly))(JJ (complex)))(PP (IN (in)))(NP (NN (tone))(CC (and))(NN (construction))))) |BT| (ROOT (S (NP (WP (what)))(VP (VBZ (be)))(NP-REL-WIK (DT (a-WIK))(JJ-REL-WIK (indian))(NN-REL (flute)))(VP (VBN (make)))(PP (IN (of))))) |BT| (ROOT (S (NP-REL-WIK (JJ-REL-WIK (indian))(NN-REL (flute))(JJ (instrumental))))) |ET| 19:0.4685213 42:0.27279773 64:0.19794866 139:0.25410274 159:0.21209492 160:0.018405255 161:1.5 162:0.42181817 163:1.8125 164:0.10181818 165:0.19512194 169:1 171:1.9285715 172:1.8444444 173:0.4685213  |BV| 19:0.81649661 42:0.69282031 64:0.53452247 65:0.32025629 85:0.27216554 139:0.30860671 159:0.2773501 160:0.13608277 161:0.8125 162:1.0526316 163:0.9375 164:0.91228068 165:0.44444445 166:0.25 169:0.5 170:0.2857143 171:1.3714286 172:1.0095239 173:0.81649661  |EV| 
-0.83729093963477874140721723961178  |BT| (ROOT (S (ADVP (WRB (how)))(NP (JJ (old)))(VP (VBD (be)))(NP-REL-WIK (NNP-REL-WIK (nolan))(NNP-REL-WIK (ryan)))(ADVP (WRB (when)))(NP (PRP (he)))(VP (VBD (retire))))) |BT| (ROOT (S (ADVP (RB (even)))(PP (IN (in)))(NP (NN (retirement)))(NP (PRP (he)))(VP (MD ('ll))(RB (never))(VB (stop))(VBG (be)))(NP-REL-WIK (DT-REL-WIK (nolan))(NNP-REL-WIK (ryan)))(NP (PRP (it)))(VP (VBD (take)))(SBAR (IN (until)))(NP (DT (each))(NN (child)))(VP (VBD (be)))(NP (DT (a-WIK))(NN (teen-ager)))(VP (TO (to))(RB (really))(VB (understand)))(ADVP (RB (just)))(NP (WP (what)))(NP (DT (that)))(VP (VBZ (mean))))) |BT| (ROOT (S (ADVP (WRB (how)))(NP (JJ (old)))(VP (VBD (be)))(NP-REL-WIK (NNP-REL-WIK (nolan))(NNP-REL-WIK (ryan)))(ADVP (WRB (when)))(NP (PRP (he)))(VP (VBD (retire))))) |BT| (ROOT (S (NP (CD (44)))(NP-REL-WIK (NNP-REL-WIK (nolan))(NNP-REL-WIK (ryan))))) |ET| 19:0.58025885 42:0.43474907 64:0.34815532 65:0.20889318 85:0.14547859 86:0.076193929 139:0.1613743 159:0.13430382 160:0.023669053 161:1.3157895 162:0.64804471 163:1.5263158 164:0.33519554 165:0.25 166:0.11764706 167:0.060606062 169:0.8888889 170:0.5 171:1.9166666 172:1.7730556 173:0.58025885  |BV| 19:0.66666669 42:0.55001909 64:0.40824831 65:0.2309401 85:0.17817417 139:0.27524093 159:0.24056262 160:0.089087084 161:0.57894737 162:0.90566039 163:0.63157892 164:0.83018869 165:0.36363637 166:0.2 169:0.44444445 170:0.25 171:1.09 172:1.05625 173:0.66666669  |EV| 
0.58348587135951457405269593436969  |BT| (ROOT (S (NP-REL (WDT (what))(NN-REL (band)))(VP-REL (VBD-REL (be)))(NP-WIK (NNP-WIK (jerry))(NNP-WIK (garcia)))(PP (IN (with))))) |BT| (ROOT (S (PP (IN (in)))(NP (DT (the))(NNP (grateful))(NNP (dead))(NN (camp)))(NP (EX (there)))(VP-REL (VBZ-REL (be))(VBN (be)))(NP (NN (plenty)))(PP (IN (of)))(VP (VBG (agonize)))(ADVP (RB (lately)))(PP (IN (about)))(VP (VBG (name)))(NP (DT (a-WIK))(NN (guitarist)))(PP (IN (for)))(NP-WIK (DT (the))(JJ (new))(, (,))(JJ (post-jerry))(NNP-WIK (garcium))(NN (group)))(NP (DT (the))(JJ (other))(NNP (one))))(S (PP (IN (for)))(NP (NNP (thursday))(NN (night)))(NP (POS ('))(NN (debut)))(PP (IN (at)))(NP-WIK (DT (the))(NNP-WIK (warfield)))(NP-REL (DT (the))(JJ (indecisive))(NN-REL (band)))(VP (VBD (invite)))(NP (RB (not))(CD (one))(CC (but))(CD (two))(NNS (replacement)))(PP (IN (for)))(NP-WIK (DT (the))(JJ (irreplaceable))(NNP-WIK (garcium))))) |BT| (ROOT (S (NP (WDT (what))(NN (band)))(VP (VBD (be)))(NP-REL-WIK (NNP-REL-WIK (jerry))(NNP-WIK (garcia)))(PP (IN (with))))) |BT| (ROOT (S (ADVP (RB (so)))(NP (NNP (god)))(VP (VBZ (be)))(NP-REL-WIK (NNP-REL-WIK (jerry))(NNP-WIK (garcium))))(S (NP (NNP (cool))))) |ET| 19:0.22565323 42:0.13453455 64:0.099503718 139:0.36442405 159:0.31407213 160:0.035892125 161:1.25 162:0.37908497 163:1.8125 164:0.14379086 165:0.093023255 169:0.5714286 171:1.9333333 172:1.7383598 173:0.22565323  |BV| 19:0.45584232 42:0.38177085 64:0.2773501 65:0.15569979 85:0.11268724 139:0.38890874 159:0.33106109 160:0.05383819 161:1 162:1.1515151 163:1.1875 164:0.969697 165:0.30769232 166:0.15384616 169:0.5714286 170:0.33333334 171:1.5111111 172:1.3329365 173:0.45584232  |EV| 
-0.83729093963477874140721723961178  |BT| (ROOT (S (NP (WP (what)))(VP (VBZ (be)))(NP-REL (DT (the))(JJ-REL (democratic))(NN-REL (party))(NN-REL (symbol))))) |BT| (ROOT (S (PP (IN (in)))(NP (DT (the))(NNS (mid-60)))(NP-REL (DT (the))(JJ (political))(NN-REL (party)))(SBAR (IN (that)))(NP (DT (the))(NNS (student)))(VP (VBN (will)))(PP (IN (into)))(VP (VBG (be))(RB (_))(VBN (know)))(PP (IN (as)))(NP-REL-WIK (DT (the))(NNP-WIK (lownde))(NNP-WIK (county))(NNP-WIK (freedom))(NNP-REL-WIK (party))(NNP (_)))(VP (VBD (choose)))(PP (IN (for-WIK)))(NP-REL (PRP$ (its))(NN-REL (symbol)))(NP (DT (a-WIK))(JJ (black))(NN (panther)))(NP (DT (a-WIK))(RBR (more))(JJ (aggressive))(NN (representation)))(PP (IN (than)))(NP (DT (the))(NN (elephant)))(VP (VBN (use)))(PP (IN (by)))(NP-WIK (DT (the))(NNPS-WIK (republican)))(NP (DT (the))(NN (rooster)))(VP (VBN (use)))(PP (IN (by)))(NP-REL-WIK (DT (the))(JJ (all-white))(NN (state))(JJ-REL-WIK (democratic))(NN-REL (party))))(S (NP (DT (a))(JJ (few))(NNS (year)))(ADVP (RB (later)))(ADVP (WRB (when)))(NP-WIK (NNP-WIK (newton)))(NP (NNS (other)))(VP (VBD (leave)))(NP-WIK (NNP-WIK (lownde)))(PP (IN (for-WIK)))(NP-WIK (NNP-WIK (californium)))(NP (PRP (they)))(VP (VBD (decide))(TO (to-WIK))(VB (use)))(NP-REL (DT (the))(JJ (same))(NN-REL (symbol)))(PP (IN (for-WIK)))(NP-REL (PRP$ (their))(NN-REL (party)))(NP (WDT (which)))(VP (VBD (be)))(ADJP (RB (far))(RBR (more))(JJ (militant)))(PP (IN (than)))(NP-REL-WIK (DT (the))(NNP-WIK (freedom))(NNP-REL-WIK (party))))) |BT| (ROOT (S (NP (WP (what)))(VP (VBZ (be)))(NP-REL (DT (the))(JJ-REL (democratic))(NN-REL (party))(NN-REL (symbol))))) |BT| (ROOT (S (NP-REL-WIK (JJ-REL-WIK (democratic))(NNP-REL-WIK (party))))(S (NP-REL (PRP$ (its))(NN-REL (symbol)))(VP (VBZ (be)))(NP (DT (a-WIK))(NN (donkey))))) |ET| 19:0.95049691 42:0.62354082 64:0.47409981 65:0.044576719 85:0.031603031 139:0.41267824 159:0.36018488 160:0.19282708 161:1.8378378 162:0.28973842 163:1.945946 164:0.1529175 165:0.1754386 166:0.023255814 169:1.4285715 170:0.33333334 171:2 172:1.9444444 173:0.95049691  |BV| 19:0.91168463 42:0.63628477 64:0.46225017 65:0.15569979 85:0.11268724 139:0.46483484 159:0.38507703 160:0.11268724 161:1.4594594 162:1.2 163:1.2972972 164:0.85000002 165:0.72727275 166:0.15384616 169:1.1428572 170:0.33333334 171:1.8666667 172:1.7481482 173:0.91168463  |EV| 
0.83729093963477874140721723961178  |BT| (ROOT (S (NP-REL (WDT (what))(NN-REL (county)))(VP (VBZ (be)))(NP-REL-WIK (NNP-REL-WIK (elmira)))(NP (NNP (ny)))(PP (IN (in))))) |BT| (ROOT (S (NP-REL-WIK (NNP-WIK (chemung))(NNP-REL-WIK (county))(NNP (nurse))(NNP (facility)))(NP-REL-WIK (NNP-REL-WIK (elmira))))) |BT| (ROOT (S (NP-REL (WDT (what))(NN-REL (county)))(VP (VBZ (be)))(NP-REL-WIK (NNP-REL-WIK (elmira)))(NP (NNP (ny)))(PP (IN (in))))) |BT| (ROOT (S (NP (DT (this)))(VP (VBD (be)))(NP-WIK (NNP-WIK (lazio)))(NP (POS ('))(JJ (final))(NN (stop)))(PP (IN (on-WIK)))(NP (DT (the))(JJ (48-hour))(NN (campaign))(NN (swing)))(NP (WDT (that)))(VP (VBD (take)))(NP (PRP (him)))(PP (IN (from)))(NP-WIK (NNP-WIK (long))(NNP-WIK (island)))(PP (TO (to-WIK)))(NP-WIK (NNP-WIK (buffalo)))(PP (TO (to-WIK)))(NP-WIK (NNP-WIK (rochester)))(VP-WIK (TO (to-WIK))(VB-WIK (syracuse)))(PP (TO (to-WIK)))(NP-WIK (NNP-WIK (binghamton)))(PP (TO (to-WIK)))(NP-REL-WIK (NNP-REL-WIK (elmira)))(PP (TO (to-WIK)))(NP-WIK (NNP-WIK (utica)))(PP (TO (to-WIK)))(NP-WIK (NNP-WIK (watertown)))(PP (TO (to-WIK)))(NP-WIK (NNP-WIK (albany)))(ADVP (RB (then)))(PP (TO (to-WIK)))(NP-REL-WIK (NNP-WIK (westchester))(NNP-REL-WIK (county))))) |ET| 19:0.80178374 42:0.42966893 64:0.30860671 139:0.43041283 159:0.37416574 160:0.14744195 161:0.96774191 162:0.95774651 163:1.0967742 164:0.45070422 165:0.5 169:0.75 171:1.4 172:1.4014815 173:0.80178374  |BV| 19:0.20134681 42:0.12691486 64:0.09600307 139:0.29082671 159:0.24538344 161:1.4193548 162:0.41152263 163:1.6129032 164:0.13168724 165:0.16666667 169:0.75 171:1.9166666 172:1.7666667 173:0.20134681  |EV| 
0.83729093963477874140721723961178  |BT| (ROOT (S (NP-REL (WDT (what))(NN-REL (country)))(VP (VBD (do)))(NP-REL-WIK (NNP-REL-WIK (panama)))(VP (VB (gain)))(NP (PRP$ (its))(NN (independence)))(PP (IN (from))))) |BT| (ROOT (S (NP (NNS (authority)))(ADVP (RB (however)))(VP (VBP (have))(VBN (insist)))(SBAR (IN (that)))(NP-REL-WIK (NNP-REL-WIK (panama)))(VP (VBZ (be)))(ADJP (JJ (ready)))(VP (TO (to))(VB (defend)))(NP (DT (the))(NN (canal)))(PP (IN (without)))(NP-WIK (DT (the))(NNP-WIK (u.s.))(NN (military)))(NP (WDT (which)))(VP (VBD (have))(VBN (maintain)))(NP (DT (a-WIK))(NN (presence)))(ADVP (RB (here)))(SBAR (IN (since)))(NP (CD (1903)))(ADVP (WRB (when)))(NP-REL (DT (the))(NN-REL (country)))(VP (VBD (become)))(ADJP (JJ (independent)))(PP (IN (of)))(NP-WIK (NNP-WIK (colombium))))) |BT| (ROOT (S (NP-REL (WDT (what))(NN-REL (country)))(VP (VBD (do)))(NP-REL-WIK (NNP-REL-WIK (panama)))(VP-REL (VB-REL (gain)))(NP (PRP$ (its))(NN (independence)))(PP (IN (from))))) |BT| (ROOT (S (NP (NN (experience)))(VP-REL (VBD-REL (gain)))(PP (IN (in)))(NP-REL (DT (these))(NNS-REL (country)))(VP (MD (will))(VB (be))(VBN (extend)))(PP (TO (to)))(NP-REL-WIK (NNP-REL-WIK (panama)))(NP-WIK (NNP-WIK (guatemalum)))(NP-WIK (NNP-WIK (hondura)))(ADVP (RB (later)))(PP (IN (on-WIK)))(NP (DT (the))(NN (official)))(VP (VBD (say))))) |ET| 19:0.19047619 42:0.10648698 64:0.075809807 139:0.33487442 159:0.2763854 160:0.042191841 161:1.4901961 162:0.62151396 163:1.5294118 164:0.17529881 165:0.10810811 169:0.44444445 171:1.8397727 172:1.6169823 173:0.19047619  |BV| 19:0.41702881 42:0.22191802 64:0.15554276 139:0.3330867 159:0.27063295 160:0.0568191 161:1.254902 162:0.85889572 163:1.3725491 164:0.2208589 165:0.23076923 169:0.66666669 171:1.6666666 172:1.5875 173:0.41702881  |EV| 
0.83729093963477874140721723961178  |BT| (ROOT (S (ADVP (WRB (when)))(NP-REL-WIK (DT (the))(NNP-REL-WIK (persian))(NNP-REL-WIK (gulf))(NNP-REL-WIK (war)))(VP (VB (occur))))) |BT| (ROOT (S (NP (CD (1991)))(NP (CD (119.6))(NNS (cent)))(NP-REL-WIK (NNP-REL-WIK (persian))(NNP-REL-WIK (gulf))(NNP-REL-WIK (war))))) |BT| (ROOT (S (ADVP (WRB (when)))(NP-REL-WIK (DT (the))(NNP-REL-WIK (persian))(NNP-REL-WIK (gulf))(NNP-REL-WIK (war)))(VP (VB (occur))))) |BT| (ROOT (S (NP-REL (DT (the))(JJ (10-day))(NN-REL (war))(NNS (game)))(VP (VBD (be))(VBN (launch)))(PP (IN (in)))(NP (DT (the))(NNS (water)))(PP (IN (of)))(NP-REL-WIK (DT (the))(JJ-REL-WIK (persian))(NN-REL-WIK (gulf))(CC (and))(NN-REL-WIK (gulf)))(PP (IN (of)))(NP-WIK (NNP-WIK (oman)))(NP (NNP (thursday))))) |ET| 19:0.70710677 42:0.62622428 64:0.53452247 65:0.42966893 85:0.30860671 86:0.1672484 139:0.44585082 159:0.3796283 160:0.23312621 161:1 162:1.0352942 163:1.2222222 164:0.84705883 165:0.42857143 166:0.30769232 167:0.16666667 169:0.75 170:0.5714286 171:1.3333334 172:1.3365079 173:0.70710677  |BV| 19:0.91914505 42:0.67791921 64:0.54554474 65:0.28128433 85:0.1980295 86:0.10497278 139:0.26031256 159:0.22075157 160:0.058222249 161:1.2222222 162:0.92063493 163:1.6111112 164:0.5714286 165:0.42105263 166:0.17391305 167:0.090909094 169:1 170:0.5714286 171:1.752381 172:1.7139683 173:0.91914505  |EV| 
0.83729093963477874140721723961178  |BT| (ROOT (S (NP (WP (what)))(VP (VBZ (be)))(NP-REL (DT (the))(JJ (major))(NN-REL (crop)))(VP-REL (VBN-REL (grow)))(PP (IN (in)))(NP-WIK (NNP-WIK (arizona))))) |BT| (ROOT (S (NP (CD (fifty-nine))(NN (percent)))(PP (IN (of)))(NP (NNS (soybean)))(NP (CD (61))(NN (percent)))(PP (IN (of)))(NP (NN (cotton)))(VP-REL (VBD (be))(VBN-REL (grow)))(PP (IN (from)))(NP (RB (genetically))(VBN (modify))(NN (seed))))(S (NP (DT (the))(JJ (vast))(NN (majority)))(PP (IN (of)))(NP-REL (DT (those))(JJ (biotech))(NNS-REL (crop)))(VP-REL (VBP (be))(VBN-REL (grow)))(PP (IN (from)))(NP-WIK (NNP-WIK (monsanto))(NN (seed)))(NP (PRP (she)))(VP (VBD (say))))) |BT| (ROOT (S (NP (WP (what)))(VP (VBZ (be)))(NP-REL (DT (the))(JJ (major))(NN-REL (crop)))(VP-REL (VBN-REL (grow)))(PP (IN (in)))(NP-WIK (NNP-WIK (arizona))))) |BT| (ROOT (S (ADVP (RB (usually)))(NP-REL (CD (one))(TO (to))(CD (two))(NNS-REL (crop)))(VP-REL (VBP (be))(VBN-REL (grow)))(PP (IN (in)))(NP-WIK (NNP-WIK (myanmar))))(S (ADVP (RB (however)))(ADVP (IN (up)))(PP (TO (to)))(NP-REL (CD (three))(CC (or))(CD (four))(NNS-REL (crop)))(VP (VBP (be)))(ADJP (JJ (cultivable)))(PP (IN (for)))(NP (PRP$ (its))(NN (soil))(CC (and))(NN (climate))))) |ET| 19:0.56568545 42:0.31203058 64:0.22454436 139:0.44747972 159:0.37069973 160:0.1711842 161:1.35 162:0.58490568 163:1.55 164:0.11320755 165:0.27586207 169:0.8888889 171:1.7708334 172:1.716369 173:0.56568545  |BV| 19:0.68599433 42:0.43474907 64:0.30996522 65:0.07231015 85:0.050734628 139:0.28552011 159:0.24866796 160:0.14638501 161:0.94999999 162:0.69999999 163:1.4 164:0.22499999 165:0.2962963 166:0.064516127 169:0.8888889 170:0.25 171:1.7666667 172:1.7040476 173:0.68599433  |EV| 
0.83729093963477874140721723961178  |BT| (ROOT (S (ADVP (WRB (when)))(VP (VBD (be)))(NP-REL-WIK (DT (the))(NNP-REL-WIK (rosenberg))(NN-REL (trial))))) |BT| (ROOT (S (NP (DT (the))(JJ (nuclear))(NN (age)))(NP-WIK (NNP-WIK (cold))(NNP-WIK (war))(NN (hysteria)))(VP (VBN (converge)))(PP (IN (in)))(NP-REL (DT (the-WIK))(CD (1951))(NN-REL (trial)))(PP (IN (of)))(NP-REL-WIK (NNP-WIK (julius))(CC (and))(NNP-WIK (ethel))(NNP-REL-WIK (rosenberg)))(NP (DT (a-WIK))(NN (case)))(VP (VBN (infect)))(PP (IN (by)))(NP-WIK (NN-WIK (anti-semitism))))(S (NP-REL-WIK (DT (the))(NNP-REL-WIK (rosenberg)))(NP-WIK (JJ (former))(NNP-WIK (communist))(NNP-WIK (party))(NNS (member)))(VP (VBD (be))(VBN (charge)))(PP (IN (with)))(VP (VBG (pass)))(NP (NNS (secret)))(PP (IN (of)))(NP (DT (the-WIK))(NN (atom))(NN (bomb)))(PP (TO (to)))(NP-WIK (DT (the-WIK))(NNP-WIK (soviet))(NNP-WIK (union))))) |BT| (ROOT (S (ADVP (WRB (when)))(VP-REL (VBD-REL (be)))(NP-REL-WIK (DT (the))(NNP-REL-WIK (rosenberg))(NN-REL (trial))))) |BT| (ROOT (S (NP-REL-WIK (NNP (former))(NNP-WIK (u.s.))(NNP (attorney))(NNP-WIK (harry))(NNP-REL-WIK (rosenberg)))(NP (WP (who)))(VP-REL (VBZ-REL (be))(VBN (follow)))(NP-WIK (DT (the))(NNP-WIK (edward))(NN (case)))(VP (VBD (say)))(NP-WIK (NNP-WIK (polozolum)))(NP (POS ('))(NN (decision)))(VP (VBD (put)))(NP-REL (DT (the))(NN-REL (trial)))(PP (IN (on)))(NP (DT (the))(NN (thinnest)))(PP (IN (of)))(NP (JJ (legal))(NNS (limb))))) |ET| 19:0.82158381 42:0.53509611 64:0.39489925 65:0.069885656 85:0.049875468 139:0.40215054 159:0.34752402 160:0.08962214 161:1.6551725 162:0.39705881 163:1.862069 164:0.22058824 165:0.21052632 166:0.041666668 169:1.3333334 170:0.40000001 171:1.92 172:1.8888888 173:0.82158381  |BV| 19:0.78446454 42:0.44202569 64:0.31957418 139:0.4134371 159:0.34999999 160:0.11377603 161:1.6551725 162:0.52272725 163:1.5862069 164:0.25 165:0.2962963 169:1.3333334 171:1.9466667 172:1.9111111 173:0.78446454  |EV| 
0.83729093963477874140721723961178  |BT| (ROOT (S (NP (WP (what)))(VP (VBZ (be)))(NP-REL (DT (the))(JJS-REL (longest))(NN-REL (river)))(PP (IN (in)))(NP-REL (DT (the))(NN-REL (world))))) |BT| (ROOT (S (NP-WIK (NNP-WIK (mahathir)))(VP (MD (will))(RB (also))(VB (be))(VBN (take)))(PP (IN (on)))(NP (DT (a-WIK))(NN (night))(NN (cruise)))(PP (IN (along)))(NP (DT (the))(NNP (nile)))(NP-REL (DT (the))(NN-REL (world)))(NP-REL (POS ('))(JJS-REL (longest))(NN-REL (river))))) |BT| (ROOT (S (NP (WP (what)))(VP (VBZ (be)))(NP-REL (DT (the))(JJS-REL (longest))(NN-REL (river)))(PP (IN (in)))(NP-REL (DT (the))(NN-REL (world))))) |BT| (ROOT (S (NP-REL-WIK (DT (the))(NNP-WIK (yangtze))(NNP-REL-WIK (river)))(NP-REL (DT (the))(JJ (third))(JJS-REL (longest))(NN-REL (river)))(PP (IN (in)))(NP-REL (DT (the))(NN-REL (world)))(VP (VBZ (flow)))(PP (IN (from)))(NP (DT (the))(NN (west)))(PP (TO (to)))(NP (DT (the))(JJ (east))(CC (and))(NNS (meander)))(PP (IN (through)))(NP (CD (11))(NNS (province)))(NP (JJ (autonomous))(NNS (region))))) |ET| 19:1.0527227 42:0.73471838 64:0.52414244 65:0.17457432 85:0.12222647 139:0.57047909 159:0.47259453 160:0.26482046 161:1.7 162:0.96124029 163:1.55 164:0.46511629 165:0.47619048 166:0.16666667 169:1.25 170:0.5 171:1.9428571 172:1.8 173:1.0527227  |BV| 19:1.230915 42:0.9686442 64:0.83420753 65:0.49652883 85:0.44474959 86:0.38836783 139:0.51293647 159:0.45532084 160:0.28237247 161:1.6 162:0.80000001 163:1.85 164:0.60540539 165:0.41666666 166:0.25806451 167:0.2 168:0.13793103 169:1.25 170:1 171:1.8095238 172:1.8031746 173:1.230915  |EV| 
0.83729093963477874140721723961178  |BT| (ROOT (S (NP (WP (what)))(VP (VBZ (do)))(NP-REL (DT (a))(JJ-REL (theodolite))(NN (measure))))) |BT| (ROOT (S (PP (IN (in)))(NP (DT (those))(NNS (case)))(NP (DT (the))(NN (weatherman)))(VP (VBZ (rely)))(PP (IN (on)))(NP (JJR (older))(NN (equipment)))(PP (JJ (such))(IN (as)))(NP-REL (DT (the))(NN-REL (theodolite)))(NP (DT (a))(NNS (1940))(NN (gadget)))(ADVP (RB (no))(RB (longer)))(PP (IN (in)))(NP (NN (production)))(NP (WDT (that)))(VP (VBZ (use)))(NP (DT (a))(NN (helium))(NN (balloon))(CC (and))(NN (trigonometry)))(VP (TO (to))(VB (determine)))(NP (NN (wind))(NNS (speed))))) |BT| (ROOT (S (NP (WP (what)))(VP (VBZ (do)))(NP-REL (DT (a))(JJ (theodolite))(NN-REL (measure))))) |BT| (ROOT (S (NP (DT (a)))(SBAR (IN (if)))(NP (DT (the))(NN (intensity)))(PP (IN (of)))(NP (NN (rainfall)))(VP (VBZ (be)))(ADJP (RB (too))(JJ (slight)))(VP-REL (TO (to))(VB (be))(VBN-REL (measure)))(NP (PRP (it)))(VP (VBZ (be))(VBN (call)))(NP (DT (a))(NN (trace))))(S (NP (EX (there)))(VP (VBZ (be)))(NP (DT (no))(NN (way)))(VP (TO (to))(VB (judge)))(NP (WRB (how))(JJ (many))(NNS (trace)))(VP (VBP (make)))(PRT (RP (up)))(NP (DT (any))(JJ (measurable))(NN (amount)))(SBAR (IN (because)))(NP (PRP (it)))(VP-REL (MD (can))(RB (not))(VB (be))(VBN-REL (measure))))) |ET| 19:0.35355338 42:0.19857101 64:0.14322297 139:0.31866458 159:0.27254328 160:0.027036903 161:1.0666667 162:0.47058824 163:1.7333333 164:0.21719457 165:0.11428571 169:0.66666669 171:2 172:1.6460317 173:0.35355338  |BV| 19:0.37219369 42:0.21928097 64:0.16228816 139:0.39857101 159:0.3349199 160:0.12515654 161:0.93333334 162:0.4909091 163:1.8 164:0.18181819 165:0.11111111 169:0.66666669 171:1.92 172:1.7013333 173:0.37219369  |EV| 
-0.83729093963477874140721723961178  |BT| (ROOT (S (NP (WDT (what))(NN (actor)))(VP (VBZ (have)))(NP-REL (DT (a-WIK))(NN-REL (tattoo)))(PP (IN (on)))(NP-REL (PRP$ (he))(JJ (right))(NN-REL (wrist)))(VP (VBG (read)))(NP-WIK (`` ("))(NNP-WIK (scotland)))(ADVP (RB (forever))))) |BT| (ROOT (S (NP (NNS (authority)))(VP (VBD (say)))(NP-WIK (NNP-WIK (resendez-ramirez)))(NP (DT (a-WIK))(JJ (native)))(PP (IN (of)))(NP-WIK (NNP-WIK (pueblum)))(NP-WIK (NNP-WIK (mexico)))(VP (VBZ (have))(VBN (use)))(NP (JJ (numerous))(NNS (alias)))(VP (NNS (change)))(NP (PRP$ (his))(NN (appearance)))(PP (IN (by)))(VP (VBG (alter)))(NP (PRP$ (his))(NN (hair))(NN (style)))(VP (VBG (wear)))(NP (NNS (glass))))(S (NP (PRP (he)))(VP (VBZ (have)))(NP (NNS (scar)))(PP (IN (on)))(NP (PRP$ (his))(JJ (right))(NN (ring))(NN (finger)))(VP (VBD (leave)))(NP-REL (NN-REL (wrist))(CC (and))(NN (forehead)))(NP (DT (a-WIK))(NN (snake)))(VP-REL (VBN-REL (tattoo)))(PP (IN (on)))(NP (PRP$ (his))(JJ (leave))(NN (arm)))(VP (MD (may))(VB (have)))(NP (DT (a-WIK))(NN (flower)))(VP-REL (VBN-REL (tattoo)))(PP (IN (on)))(NP-REL (PRP$ (his))(JJ (leave))(NN-REL (wrist))))) |BT| (ROOT (S (NP (WDT (what))(NN (actor)))(VP (VBZ (have)))(NP-REL (DT (a-WIK))(NN-REL (tattoo)))(PP (IN (on)))(NP (PRP$ (he))(JJ (right))(NN (wrist)))(VP (VBG (read)))(NP-REL-WIK (`` ("))(NNP-REL-WIK (scotland)))(ADVP-REL (RB-REL (forever))))) |BT| (ROOT (S (SBAR (IN (though)))(NP-WIK (NNP-WIK (connery)))(VP (VBZ (be)))(NP (DT (a-WIK))(JJ (native)))(PP (IN (of)))(NP-REL-WIK (NNP-REL-WIK (scotland)))(VP (VBZ (bear)))(NP-REL (DT (a-WIK))(JJ-REL (tattoo))(NN (proclaim)))(NP-REL-WIK (NNP-REL-WIK (scotland))(NNP-REL (forever)))(NP (PRP (he)))(VP (VBZ (do))(RB (not))(VB (reside)))(ADVP (RB (here))))) |ET| 19:0.61059415 42:0.44096327 64:0.32608908 65:0.099380799 85:0.068979189 139:0.51016366 159:0.44347793 160:0.21353111 161:1.4285715 162:0.60053617 163:1.6 164:0.12868632 165:0.31111112 166:0.061538462 169:1 170:0.2857143 171:1.9416667 172:1.8000596 173:0.61059415  |BV| 19:0.63052827 42:0.45269591 64:0.31980106 65:0.11739346 85:0.080697007 139:0.34299716 159:0.28051475 160:0.057011146 161:1.0285715 162:0.95652175 163:1.2571429 164:0.39130434 165:0.34482759 166:0.11764706 169:0.71428573 170:0.2857143 171:1.8666667 172:1.6486508 173:0.63052827  |EV| 
0.83729093963477874140721723961178  |BT| (ROOT (S (NP-REL (WDT (what))(NN-REL (country)))(VP (VBZ (be)))(NP-REL (DT (the))(VBG (lead))(NN-REL (producer)))(PP (IN (of)))(NP-REL (NN-REL (rubber))))) |BT| (ROOT (S (NP-REL (DT (the))(VBG (increase))(NN-REL (rubber))(NN (production))(CC (and-WIK))(NN (export)))(VP (VBP (have))(VBN (entail)))(NP (DT (the))(NN (facilitation)))(PP (IN (of)))(NP-REL (NN-REL (rubber)))(NP (NN (trade)))(PP (IN (through)))(NP-REL (DT (a-WIK))(NN-REL (rubber))(NN (exchange)))(PP (IN (in)))(NP-REL (DT (the))(NN-REL (country))))(S (NP (NNS (analyst)))(VP (VBD (say)))(SBAR (IN (that)))(NP (DT (the))(NN (exchange)))(VP (MD (would))(VB (place)))(NP-WIK (NNP-WIK (thailand)))(PP (IN (on)))(NP (NN (par)))(PP (IN (with)))(NP-REL (JJ (other))(JJ (major))(NN-REL (rubber))(NNS-REL (producer)))(PP (IN (in)))(NP (DT (the))(NN (capability)))(VP (TO (to))(VB (quote)))(NP (NNS (price))))) |BT| (ROOT (S (NP-REL (WDT (what))(NN-REL (country)))(VP (VBZ (be)))(NP-REL (DT (the))(VBG (lead))(NN-REL (producer)))(PP (IN (of)))(NP-REL (NN-REL (rubber))))) |BT| (ROOT (S (NP (DT (the))(NN (organization)))(VP (VBN (know)))(PP (IN (as)))(NP-WIK (DT (the))(NNP-WIK (inro)))(VP (VBD (be))(VBN (set)))(PRT (RP (up)))(PP (IN (in)))(NP (CD (1978)))(VP (TO (to))(VB (bring)))(ADVP (RB (together)))(NP-REL (NN-REL (rubber))(NN-REL (producer))(NNS-REL (country)))(NP-REL (NN-REL (rubber))(NN (consumer))(NNS-REL (country))))(S (NP (PRP (it)))(VP (VBZ (stabilize)))(NP-REL (NN-REL (rubber))(NNS (price)))(PP (IN (by)))(VP (VBG (regulate)))(NP (NN (demand))(CC (and))(NN (supply)))(PP (IN (in)))(NP (DT (the))(JJ (international))(NN (market))))) |ET| 19:0.8888889 42:0.5640192 64:0.41192076 65:0.056011204 85:0.039036002 139:0.57841355 159:0.50312829 160:0.17189598 161:1.6444445 162:0.49333334 163:1.6444445 164:0.14666666 165:0.27027026 166:0.041666668 169:1.1111112 170:0.25 171:2 172:1.7638888 173:0.8888889  |BV| 19:0.86066294 42:0.49251524 64:0.35399616 139:0.4946585 159:0.4205626 160:0.059269559 161:1.4222223 162:0.54263568 163:1.5555556 164:0.15503876 165:0.30303031 169:1.1111112 171:1.725 172:1.7569444 173:0.86066294  |EV| 
0.27480614721259188915070126313367  |BT| (ROOT (S (NP (WDT (what))(NN (country)))(VP (VBZ (be)))(NP-WIK (NNP-WIK (hyundai)))(PP (IN (from))))) |BT| (ROOT (S (NP-WIK (NNP-WIK (hyundaus))(NNP-WIK (motor)))(VP (VBZ (be)))(NP (DT (a-WIK))(NN (subsidiary)))(PP (IN (of)))(NP-WIK (NNP-WIK (south))(NNP-WIK (korea)))(NP (POS ('))(JJS (largest))(NN (conglomerate)))(NP-WIK (NNP-WIK (hyundaus))))) |BT| (ROOT (S (NP-REL (WDT (what))(NN-REL (country)))(VP-REL (VBZ-REL (be)))(NP-WIK (NNP-WIK (hyundai)))(PP (IN (from))))) |BT| (ROOT (S (NP (PRP (i-WIK)))(VP (VBP (think)))(NP (DT (that)))(VP-REL (VBZ-REL (be)))(NP (DT (a-WIK))(RB (very))(JJ (important))(NN (decision)))(PP (IN (for)))(NP (NNS (consumer)))(PP (IN (in-WIK)))(NP-WIK (NNP-WIK (texa)))(PP (CC (and)))(PP (IN (for)))(NP (NNS (consumer)))(PP (IN (throughout)))(NP-REL (DT (the))(NN-REL (country)))(VP (VBD (say)))(NP-WIK (NNP-WIK (christa))(NNP-WIK (brown)))(PP (IN (of)))(NP-WIK (NNP-WIK (austin)))(NP (NN (lawyer)))(PP (IN (for)))(NP-WIK (NNP-WIK (mario))(NNP-WIK (alvarado)))(NP (WP (who)))(VP (VBD (sue)))(NP-WIK (NNP-WIK (hyundaus))(NNP-WIK (motor))(NNP-WIK (co.)))(NP-WIK (NNP-WIK (hyundaus))(NNP-WIK (motor))(NNP-WIK (america))(NNP-WIK (inc.)))(NP-WIK (NNP-WIK (port))(NNP-WIK (city))(NNP-WIK (hyundaus))(NNP-WIK (inc.)))(PP (IN (over)))(NP (DT (the))(NNS (injury)))(NP (PRP (he)))(VP (VBD (sustain)))(PP (IN (in-WIK)))(NP (DT (a-WIK))(NN (rollover))(NN (crash)))(NP (WDT (that)))(VP (VBD (occur)))(PP (IN (outside)))(NP-WIK (NNP-WIK (laredo)))(NP-WIK (NNP-WIK (texa))))) |ET| 19:0.20412415 42:0.1119785 64:0.080647781 139:0.32530004 159:0.27399832 161:0.93333334 162:0.68468469 163:1.2666667 164:0.25225225 165:0.11111111 169:0.33333334 171:1.7 172:1.4984127 173:0.20412415  |BV| 19:0.14664711 42:0.087266378 64:0.064931303 139:0.33131278 159:0.29182461 160:0.029934216 161:1.3333334 162:0.28337875 163:1.7333333 164:0.098092645 165:0.079999998 169:0.66666669 171:1.84 172:1.8319048 173:0.14664711  |EV| 
-0.83729093963477874140721723961178  |BT| (ROOT (S (NP (WDT (what))(NN (actor)))(VP (VBZ (have)))(NP-REL (DT (a-WIK))(NN-REL (tattoo)))(PP (IN (on)))(NP-REL (PRP$ (he))(JJ (right))(NN-REL (wrist)))(VP (VBG (read)))(NP-WIK (`` ("))(NNP-WIK (scotland)))(ADVP (RB (forever))))) |BT| (ROOT (S (NP (NNS (authority)))(VP (VBD (say)))(NP-WIK (NNP-WIK (resendez-ramirez)))(NP (DT (a-WIK))(JJ (38-year-old))(NN (native)))(PP (IN (of)))(NP-WIK (NNP-WIK (pueblum)))(NP-WIK (NNP-WIK (mexico)))(VP (VBZ (have))(VBN (use)))(NP (JJ (numerous))(NNS (alias)))(VP (NNS (change)))(NP (PRP$ (his))(NN (appearance)))(PP (IN (by)))(VP (VBG (alter)))(NP (PRP$ (his))(NN (hair))(NN (style)))(VP (VBG (wear)))(NP (NNS (glass))))(S (NP (PRP (he)))(VP (VBZ (have)))(NP (NNS (scar)))(PP (IN (on)))(NP (PRP$ (his))(JJ (right))(NN (ring))(NN (finger)))(VP (VBD (leave)))(NP-REL (NN-REL (wrist))(CC (and))(NN (forehead)))(NP (DT (a-WIK))(NN (snake)))(VP-REL (VBN-REL (tattoo)))(PP (IN (on)))(NP (PRP$ (his))(JJ (leave))(NN (arm)))(VP (MD (may))(VB (have)))(NP (DT (a-WIK))(NN (flower)))(VP-REL (VBN-REL (tattoo)))(PP (IN (on)))(NP-REL (PRP$ (his))(JJ (leave))(NN-REL (wrist))))) |BT| (ROOT (S (NP (WDT (what))(NN (actor)))(VP (VBZ (have)))(NP-REL (DT (a-WIK))(NN-REL (tattoo)))(PP (IN (on)))(NP (PRP$ (he))(JJ (right))(NN (wrist)))(VP (VBG (read)))(NP-REL-WIK (`` ("))(NNP-REL-WIK (scotland)))(ADVP-REL (RB-REL (forever))))) |BT| (ROOT (S (SBAR (IN (though)))(NP-WIK (NNP-WIK (connery)))(VP (VBZ (be)))(NP (DT (a-WIK))(JJ (native)))(PP (IN (of)))(NP-REL-WIK (NNP-REL-WIK (scotland)))(VP (VBZ (bear)))(NP-REL (DT (a-WIK))(JJ-REL (tattoo))(NN (proclaim)))(NP-REL-WIK (NNP-REL-WIK (scotland))(NNP-REL (forever)))(NP (PRP (he)))(VP (VBZ (do))(RB (not))(VB (reside)))(ADVP (RB (here))))) |ET| 19:0.60845542 42:0.43892649 64:0.32433748 65:0.098652728 85:0.068451948 139:0.52535856 159:0.45708483 160:0.22884722 161:1.4285715 162:0.58181816 163:1.6 164:0.12467533 165:0.30434781 166:0.060606062 169:1 170:0.2857143 171:1.9416667 172:1.8000596 173:0.60845542  |BV| 19:0.63052827 42:0.45269591 64:0.31980106 65:0.11739346 85:0.080697007 139:0.34299716 159:0.28051475 160:0.057011146 161:1.0285715 162:0.95652175 163:1.2571429 164:0.39130434 165:0.34482759 166:0.11764706 169:0.71428573 170:0.2857143 171:1.8666667 172:1.6486508 173:0.63052827  |EV| 
0.83729093963477874140721723961178  |BT| (ROOT (S (ADVP (WRB (when)))(VP (VBD (be)))(NP-REL-WIK (DT (the))(JJ-REL-WIK (hellenistic))(NNP-WIK (age))))) |BT| (ROOT (S (NP-WIK (NNP-WIK (berlin))(-LRB- (-lrb-))(NNP-WIK (ap))(-RRB- (-rrb-))(VBZ (_)))(NP (DT (the))(NN (scaffold)))(VP (VBZ (be-WIK))(VBN (go)))(NP (DT (the))(NNS (tourist)))(VP (VBN (pour)))(PP (IN (in-WIK)))(NP (NNP (tuesday)))(PP (IN (for)))(NP (DT (a-WIK))(NN (look)))(PP (IN (at)))(NP-WIK (NNP-WIK (berlin))(POS (')))(ADJP (RB (partially))(VBN (restore)))(NP-WIK (NNP-WIK (pergamon))(NNP-WIK (altar)))(NP (DT (a-WIK))(NN (masterpiece)))(PP (IN (of)))(NP-REL-WIK (JJ-REL-WIK (hellenistic))(NN (art)))(VP (VBG (date)))(PP (IN (from)))(NP (DT (the))(CD (2nd))(NN (century))(NN (b.c.))))) |BT| (ROOT (S (ADVP (WRB (when)))(VP (VBD (be)))(NP-REL-WIK (DT (the))(JJ-REL-WIK (hellenistic))(NNP-WIK (age))))) |BT| (ROOT (S (SBAR (IN (though)))(NP (DT (the))(NNS (mummy)))(VP (VBP (date)))(PP (TO (to)))(NP (DT (the))(JJ (first))(CC (and-WIK))(JJ (second))(NNS (century))(NNP (a.d.)))(NP-WIK (NNP-WIK (hawass)))(VP (VBD (say)))(NP (DT (the))(NN (site)))(VP (VBD (be-WIK)))(ADVP (RB (probably)))(NP (DT (a-WIK))(NN (burial))(NN (place)))(PP (IN (from)))(NP (DT (the))(NN (time)))(NP-WIK (NNP-WIK (alexander)))(NP (DT (the))(NNP (great)))(VP (VBD (be-WIK)))(PP (IN (in)))(NP-WIK (NNP-WIK (egypt)))(PP (IN (in)))(NP (CD (322))(NNP (b.c))))(S (NP-REL-WIK (DT (a-WIK))(NNP-REL-WIK (hellenistic))(NN (temple)))(VP (VBZ (stand)))(PP (IN (near)))(NP (DT (the))(NN (cemetery))))) |ET| 19:0.59549135 42:0.33095169 64:0.23769134 139:0.20430157 159:0.17407766 161:1.4482758 162:0.44444445 163:1.7241379 164:0.24888889 165:0.16666667 169:1 171:1.92 172:1.8088889 173:0.59549135  |BV| 19:0.80659926 42:0.48542389 64:0.36072215 139:0.36427516 159:0.31318584 160:0.070947565 161:1.3793104 162:0.42622951 163:1.7931035 164:0.21311475 165:0.16666667 169:1 171:1.92 172:1.8088889 173:0.80659926  |EV| 
-0.1651106711596581344547729486294  |BT| (ROOT (S (NP (WDT (what))(NN (band)))(VP (VBD (be)))(NP-REL-WIK (NNP-REL-WIK (jerry))(NNP-WIK (garcia)))(PP (IN (with))))) |BT| (ROOT (S (NP-REL-WIK (NNP-REL-WIK (jerry))(NNP-WIK (garcium)))(VP (VBD (impound))))) |BT| (ROOT (S (NP-REL (WDT (what))(NN-REL (band)))(VP-REL (VBD-REL (be)))(NP-WIK (NNP-WIK (jerry))(NNP-WIK (garcia)))(PP (IN (with))))) |BT| (ROOT (S (PP (IN (in)))(NP (DT (the))(NNP (grateful))(NNP (dead))(NN (camp)))(NP (EX (there)))(VP-REL (VBZ-REL (be))(VBN (be)))(NP (NN (plenty)))(PP (IN (of)))(VP (VBG (agonize)))(ADVP (RB (lately)))(PP (IN (about)))(VP (VBG (name)))(NP (DT (a-WIK))(NN (guitarist)))(PP (IN (for)))(NP-WIK (DT (the))(JJ (new))(, (,))(JJ (post-jerry))(NNP-WIK (garcium))(NN (group)))(NP (DT (the))(JJ (other))(NNP (one))))(S (PP (IN (for)))(NP (NNP (thursday))(NN (night)))(NP (POS ('))(NN (debut)))(PP (IN (at)))(NP-WIK (DT (the))(NNP-WIK (warfield)))(NP-REL (DT (the))(JJ (indecisive))(NN-REL (band)))(VP (VBD (invite)))(NP (RB (not))(CD (one))(CC (but))(CD (two))(NNS (replacement)))(PP (IN (for)))(NP-WIK (DT (the))(JJ (irreplaceable))(NNP-WIK (garcium))))) |ET| 19:0.37796447 42:0.20965697 64:0.15713485 139:0.47193989 159:0.41247895 160:0.10540926 161:0.875 162:1.0181818 163:0.875 164:0.80000001 165:0.2 169:0.2857143 171:1.2277777 172:1.2896825 173:0.37796447  |BV| 19:0.22565323 42:0.13453455 64:0.099503718 139:0.36442405 159:0.31407213 160:0.035892125 161:1.25 162:0.37908497 163:1.8125 164:0.14379086 165:0.093023255 169:0.5714286 171:1.9333333 172:1.7383598 173:0.22565323  |EV| 
0.83729093963477874140721723961178  |BT| (ROOT (S (NP-REL-WIK (WDT (what))(JJ-WIK (american))(NN (landmark))(VBZ-REL (stand)))(PP (IN (on)))(NP-REL (NNP-REL (liberty))(NNP (island))))) |BT| (ROOT (S (NP (DT (that))(NNP (statue)))(PP (IN (of)))(NP-REL (NNP-REL (liberty)))(VP (VBZ (be)))(CONJP (RB (not))(RB (just))(IN (for)))(NP (DT (the))(NNS (people)))(PP (IN (in)))(NP-WIK (DT (the))(NNP-WIK (unite))(NNP-WIK (state)))(NP-WIK (NNP-WIK (courter)))(VP (VBD (say))))(S (NP (DT (the))(NNP (statue)))(PP (IN (of)))(NP-REL (NNP-REL (liberty)))(VP-REL (VBZ-REL (stand)))(PP (IN (for)))(NP (NN (freedom)))(PP (IN (for)))(NP (NN (everyone))))) |BT| (ROOT (S (NP-REL-WIK (WDT (what))(JJ-REL-WIK (american))(NN (landmark))(VBZ (stand)))(PP (IN (on)))(NP-REL (NNP-REL (liberty))(NNP-REL (island))))) |BT| (ROOT (S (NP (DT (a-WIK))(NN (state))(NN (hear)))(VP (VBG (pit)))(NP-WIK (DT (the))(NNP-WIK (school))(NNP-WIK (committee)))(PP (IN (against)))(NP-REL-WIK (DT (the))(NNP-REL-WIK (american))(NNP-WIK (civil))(NNPS-REL-WIK (liberty))(NNP-WIK (union)))(PP (IN (of-WIK)))(NP-REL-WIK (NNP-WIK (rhode))(NNP-REL-WIK (island)))(VP (VBZ (have))(VBN (take)))(NP (DT (some))(JJ (odd))(NNS (twist))))) |ET| 19:0.26516503 42:0.1541505 64:0.11353134 139:0.41702881 159:0.35160542 160:0.084666751 161:0.83333331 162:0.66331661 163:1.375 164:0.18090452 165:0.14814815 169:0.5 171:1.7571429 172:1.6055555 173:0.26516503  |BV| 19:0.40089187 42:0.21693046 64:0.15324283 139:0.45656213 159:0.38604403 160:0.13344012 161:1.25 162:0.73988438 163:1.3333334 164:0.23121387 165:0.22222222 169:0.75 171:2 172:1.6888889 173:0.40089187  |EV| 
-0.26915244067673393946193982628756  |BT| (ROOT (S (NP (WDT (what))(NN (year)))(VP (VBD (do)))(NP-WIK (NNP-WIK (mussolini)))(VP (VB (seize)))(NP (NN (power)))(PP (IN (in-WIK)))(NP-REL-WIK (NNP-REL-WIK (italy))))) |BT| (ROOT (S (PP (IN (in)))(NP (CD (1919)))(NP-WIK (NNP-WIK (benito))(NNP-WIK (mussolinus)))(VP (VBD (found)))(NP (PRP$ (his))(NNP (fascist))(JJ (political))(NN (movement)))(PP (IN (in-WIK)))(NP-WIK (NNP-WIK (milan)))(NP-REL-WIK (NNP-REL-WIK (italy))))) |BT| (ROOT (S (NP (WDT (what))(NN (year)))(VP (VBD (do)))(NP-WIK (NNP-WIK (mussolini)))(VP (VB (seize)))(NP-REL (NN-REL (power)))(PP (IN (in-WIK)))(NP-REL-WIK (NNP-REL-WIK (italy))))) |BT| (ROOT (S (NP (DT (the))(NN (rise)))(PP (IN (of)))(NP-WIK (NNP-WIK (benito))(NNP-WIK (mussolinus)))(NP-WIK (POS ('))(NN-WIK (fascist))(NN (movement)))(NP (PRP$ (its))(JJ (eventual))(NN (seizure)))(PP (IN (of)))(NP-REL (NN-REL (power)))(PP (IN (in-WIK)))(NP (CD (1922)))(VP (VBD (be)))(ADVP (RB (largely)))(PP (IN (in-WIK)))(NP (NN (response)))(PP (TO (to-WIK)))(NP (DT (the))(NN (menace)))(PP (IN (of)))(NP (DT (a-WIK))(JJ (communist))(NN (revolution)))(PP (IN (in-WIK)))(NP-REL-WIK (NNP-REL-WIK (italy)))(PP (IN (after)))(NP-WIK (NNP-WIK (world))(NNP-WIK (war))(NNP-WIK (i.))(NNP-WIK (mussolinus)))(NP (POS ('))(JJS (most))(JJ (assiduous))(NN (admirer))(CC (and))(NN (imitator)))(VP (VBD (be)))(NP-WIK (NNP-WIK (germany)))(NP-WIK (POS ('))(NNP-WIK (adolf))(NNP-WIK (hitler)))(NP (WP (who)))(VP (VBD (base)))(NP-WIK (NNP-WIK (nazus))(NN (ideology)))(ADVP (RB (mainly)))(PP (IN (on)))(NP-WIK (DT (the))(JJ-WIK (italian))(NN (dictator)))(NP (POS ('))(NNS (idea))))) |ET| 19:0.45883146 42:0.25332019 64:0.18057878 139:0.45834926 159:0.38348249 160:0.13631964 161:1.0222223 162:0.9375 163:1.3333334 164:0.3125 165:0.2 169:0.44444445 171:1.4083333 172:1.4314815 173:0.45883146  |BV| 19:0.34565055 42:0.27632177 64:0.19910805 65:0.097157232 85:0.067544833 139:0.55273527 159:0.4799147 160:0.18910287 161:1.5111111 162:0.40547946 163:1.6444445 164:0.10958904 165:0.11764706 166:0.065573767 169:0.66666669 170:0.5 171:2 172:1.7951587 173:0.34565055  |EV| 
0.83729093963477874140721723961178  |BT| (ROOT (S (NP (WP (who)))(VP (VBZ (be)))(NP (DT (the))(NN (author)))(PP (IN (of)))(NP-REL (DT (the))(NN-REL (poem)))(NP-REL (DT (the))(NN (midnight))(NN-REL (ride)))(PP (IN (of)))(NP-REL-WIK (NNP-REL-WIK (paul))(NNP-REL-WIK (revere))))) |BT| (ROOT (S (NP-WIK (NNP (paul-revere))(-LRB- (-lrb-))(NNP-WIK (danville)))(NP-WIK (NNP-WIK (calif.)))(NP (JJ (_))(NNP (april))(CD (18)))(VP (VBZ (be)))(NP (DT (the))(NN (anniversary)))(PP (IN (of)))(NP (DT (a-WIK))(JJ (historical))(NN (moment)))(VP (VBN (remember)))(ADVP (RB (primarily)))(PP (IN (because))(IN (of)))(NP (PRP$ (its))(NN (render)))(PP (IN (as)))(NP (JJ (true))(NN (story))('' (''))(NN (art))))(S (NP (DT (the))(NN (moment)))(VP (VBZ (be)))(NP (DT (a-WIK))(NN (night)))(PP (IN (in)))(NP (CD (1775)))(PP (IN (before)))(NP (DT (the))(NNP (american))(NNP (revolution))))(S (NP (DT (the))(NN (artist)))(VP (VBZ (be)))(NP-WIK (NN (poet))(NNP-WIK (henry))(NNP-WIK (wadsworth))(NNP-WIK (longfellow))))(S (NP (DT (the))(NN (art)))(VP (VBZ (be)))(NP-WIK (NNP-WIK (longfellow)))(NP-REL (POS ('))(JJ (famous))(NN-REL (poem)))(NP-REL-WIK (NNP-REL-WIK (paul))(NNP-REL-WIK (revere)))(NP-REL (POS ('))(NNP-REL (ride)))(VP (VBN (write)))(NP (CD (85))(NNS (year)))(PP (IN (after)))(NP (DT (the))(NN (event))))(S (NP (DT (the))(NNS (discrepancy)))(PP (IN (between)))(NP-REL-WIK (NNP-REL-WIK (revere)))(NP-REL (POS ('))(JJ (real))(NN-REL (ride)))(NP-REL (PRP$ (his))(NN-REL (ride)))(PP (IN (in)))(NP-REL (DT (the))(NN-REL (poem)))(VP (VBP (be)))(ADJP (JJ (many)))(NP (PRP (they)))(VP (VBP (force)))(NP (PRP (us)))(VP (TO (to))(VB (question)))(ADVP (WRB (how))(RB (seriously)))(SBAR (IN (if-WIK)))(PP (IN (at)))(NP (DT (all))(-RRB- (-rrb-)))(NP (PRP (we)))(VP (MD (should))(VB (trust)))(NP (NNS (artist)))(VP (TO (to))(VB (tell)))(NP (DT (the))(NN (truth))))(S (PP (IN (by)))(NP-WIK (NNP-WIK (cynthium))(NNP-WIK (bass))))) |BT| (ROOT (S (NP (WP (who)))(VP (VBZ (be)))(NP (DT (the))(NN (author)))(PP (IN (of)))(NP (DT (the))(NN (poem)))(NP-REL (DT (the))(NN-REL (midnight))(NN-REL (ride)))(PP (IN (of)))(NP-REL-WIK (NNP-REL-WIK (paul))(NNP-REL-WIK (revere))))) |BT| (ROOT (S (NP-WIK (NNP-WIK (boston)))(NP (DT (the))(NN (announcement)))(VP (VBD (come)))(ADVP (RB (breathlessly)))(NP (NNP (wednesday))(NN (afternoon))))(S (NP (PRP (it)))(VP (VBD (sound)))(PP (IN (like)))(NP (DT (the))(JJ (flip))(NN (side))(NN (version)))(PP (IN (of)))(NP-REL (DT (the))(NNP-REL (midnight))(NNP-REL (ride)))(PP (IN (of)))(NP-REL-WIK (NNP-REL-WIK (paul))(NNP-REL-WIK (revere))))) |ET| 19:1.0313759 42:0.72947162 64:0.55852538 65:0.07268057 85:0.049916875 139:0.70959455 159:0.64191133 160:0.39655557 161:1.6176471 162:0.3568075 163:1.6764706 164:0.081377149 165:0.175 166:0.050420169 169:1.1666666 170:0.40000001 171:1.9333333 172:1.8258333 173:1.0313759  |BV| 19:1.1113248 42:0.87982404 64:0.76052332 65:0.47750229 85:0.43643579 86:0.39300424 139:0.62681872 159:0.55277079 160:0.31235808 161:1.4117647 162:1.0704225 163:1.6764706 164:0.63849765 165:0.42857143 166:0.2857143 167:0.23529412 168:0.18181819 169:1 170:0.66666669 171:1.75 172:1.7372222 173:1.1113248  |EV| 
-0.83729093963477874140721723961178  |BT| (ROOT (S (NP-REL (WDT (what))(NN-REL (county)))(VP-REL (VBZ-REL (be)))(NP-REL-WIK (NNP-REL-WIK (elmira)))(NP (NNP (ny)))(PP (IN (in))))) |BT| (ROOT (S (NP (PRP (i)))(VP (VBP (hope)))(NP (PRP (you)))(VP (VBP (do))(RB (n't))(VB (get)))(NP (JJ (sick)))(PP (IN (of)))(NP (PRP (me)))(NP (PRP (you)))(VP-REL (VBP-REL (be))(VBG (go))(TO (to))(VB (see)))(NP (PRP (me)))(ADVP (RB (so))(RB (often)))(NP (PRP (he-WIK)))(VP (VBD (tell)))(NP-WIK (NNS-WIK (republican)))(PP (IN (at)))(NP (DT (a-WIK))(NN (breakfast)))(PP (IN (in)))(NP-REL-WIK (NNP-REL-WIK (elmira)))(NP (DT (this))(NN (morn))))(S (PP (IN (in)))(NP-REL-WIK (NNP-WIK (westchester))(NNP-REL-WIK (county)))(NP (PRP (he-WIK)))(VP (VBD (say)))(NP (PRP (i)))(VP (VBP (hope)))(NP (PRP (you)))(VP (VBP (do))(RB (n't))(VB (get)))(NP (JJ (sick)))(PP (IN (of)))(NP (PRP (me)))(NP (PRP (i)))(VP-REL (VBP-REL (be))(VBG (go))(TO (to))(VB (be)))(ADVP (RB (back))(RB (so))(RB (often))))) |BT| (ROOT (S (NP-REL (WDT (what))(NN-REL (county)))(VP (VBZ (be)))(NP-REL-WIK (NNP-REL-WIK (elmira)))(NP (NNP (ny)))(PP (IN (in))))) |BT| (ROOT (S (NP-REL-WIK (NNP-WIK (chemung))(NNP-REL-WIK (county))(NNP (nurse))(NNP (facility)))(NP-REL-WIK (NNP-REL-WIK (elmira))))) |ET| 19:0.73301667 42:0.41873914 64:0.30389488 139:0.189667 159:0.15990053 160:0.013653865 161:1.2903225 162:0.39694658 163:1.6774193 164:0.1221374 165:0.27777779 169:1.25 171:2 172:1.8181819 173:0.73301667  |BV| 19:0.80178374 42:0.42966893 64:0.30860671 139:0.43041283 159:0.37416574 160:0.14744195 161:0.96774191 162:0.95774651 163:1.0967742 164:0.45070422 165:0.5 169:0.75 171:1.4 172:1.4014815 173:0.80178374  |EV| 
-0.83729093963477874140721723961178  |BT| (ROOT (S (NP-REL (WDT (which))(NN-REL (city)))(VP (VBZ (be)))(ADVP-REL (NN-REL (home)))(PP (TO (to)))(NP-REL-WIK (NNP-REL-WIK (superman))))) |BT| (ROOT (S (NP (DT (the))(NN (lesson)))(NP (PRP (he)))(VP (VBD (take)))(ADVP (RB (away)))(PP (IN (from)))(NP (DT (this)))(VP (VBD (be)))(SBAR (IN (that)))(NP (PRP (you)))(VP (MD (can))(RB (not))(RB (just))(RB (naively))(VB (scale)))(NP (NNS (thing)))(PRT (RP (up-WIK))))(S (NP (PRP (he)))(VP (VBD (like))(TO (to))(VB (illustrate)))(NP (DT (the))(NN (idea)))(PP (IN (with)))(NP-REL-WIK (NNP-REL-WIK (superman))))(S (PP (IN (in)))(NP (CD (two))(NNS (panel)))(VP (VBN (label)))(NP (DT (a))(NNP (scientific))(NNP (explanation)))(PP (IN (of)))(NP-WIK (NNP-WIK (clark))(NNP-WIK (ken)))(NP (POS ('))(NNP (amaze))(NNP (strength)))(PP (IN (from)))(NP-REL-WIK (NNP-REL-WIK (superman)))(NP (POS ('))(JJ (first))(JJ (comic))(NN (book))(NN (appearance)))(PP (IN (in)))(NP (CD (1938)))(NP (DT (the))(NNS (artist)))(VP (VBD (invoke)))(NP (DT (a-WIK))(JJ (scale))(NN (law)))(NP (DT (the))(JJ (lowly))(NN (ant)))(VP (MD (can))(VB (support)))(NP (NNS (weight))(NNS (hundred)))(PP (IN (of)))(NP (NNS (time)))(NP (PRP$ (its))(JJ (own))))(S (NP (DT (the))(NN (grasshopper)))(VP (VBZ (leap)))(NP (WP (what)))(PP (TO (to)))(NP-WIK (NN-WIK (man)))(VP (MD (would))(VB (be)))(NP (DT (the))(NN (space)))(PP (IN (of)))(NP-REL (JJ (several))(NN-REL (city))(NNS (block))))(S (NP (DT (the))(NN (implication)))(VP (VBD (be)))(PP (IN (on)))(NP (DT (the))(NN (planet))(NNP (krypton)))(NP-REL-WIK (NNP-REL-WIK (superman)))(NP-REL (POS ('))(NN-REL (home)))(NP (NN (strength)))(VP (VBD (scale)))(PP (TO (to)))(NP (NN (body))(NN (mass)))(PP (IN (in)))(NP (DT (a-WIK))(JJ (simple))(JJ (linear))(NN (manner)))(SBAR (IN (if)))(NP (DT (an-WIK))(NN (ant)))(VP (MD (could))(VB (carry)))(NP (DT (a-WIK))(NN (twig)))(NP-REL-WIK (DT (a-WIK))(NNP-REL-WIK (superman))(CC (or))(NNP-WIK (superwoman)))(VP (MD (could))(VB (carry)))(NP (DT (a-WIK))(JJ (giant))(NN (ponderosa))(NN (pine))))) |BT| (ROOT (S (NP (WDT (which))(NN (city)))(VP-REL (VBZ-REL (be)))(ADVP (NN (home)))(PP (TO (to)))(NP-REL-WIK (NNP-REL-WIK (superman))))) |BT| (ROOT (S (NP (PRP (it)))(VP-REL (VBZ-REL (be))(RB (alway))(VBN (be)))(NP (DT (a-WIK))(VBG (run))(NN (joke)))(SBAR (IN (that)))(SBAR (IN (since)))(NP (PRP (i)))(VP (VBP (live)))(PP (IN (near)))(NP (NNP (metropolis)))(NP (PRP (i)))(VP (MD (must))(VB (know)))(NP-REL-WIK (NNP-REL-WIK (superman)))(NP (PRP (he)))(VP (VBD (say))))(S (NP (PRP (i)))(VP (VBD (think)))(NP (PRP (it)))(VP (MD (would))(VB (be)))(NP (NN (fun)))(VP (TO (to))(RB (actually))(VB (be)))(NP-REL-WIK (NNP-REL-WIK (superman))))) |ET| 19:0.50087035 42:0.30802158 64:0.23113281 139:0.33673784 159:0.29683152 160:0.020444384 161:1.4375 162:0.18075801 163:1.9375 164:0.058309037 165:0.11363637 169:1.4285715 171:1.9333333 172:1.91 173:0.50087035  |BV| 19:0.61101007 42:0.36527264 64:0.2712445 139:0.20452796 159:0.17273556 160:0.045822892 161:1.125 162:0.55614972 163:1.625 164:0.21390374 165:0.20689656 169:0.85714287 171:1.9333333 172:1.7 173:0.61101007  |EV| 
-0.83729093963477874140721723961178  |BT| (ROOT (S (PP (IN (in)))(NP (WDT (which))(NN (country)))(VP (VBZ (be)))(NP-REL-WIK (NNP-REL-WIK (timbuktu))))) |BT| (ROOT (S (NP (NN (q)))(ADVP (WRB (when)))(NP (NN (something)))(VP (VBZ (be)))(ADVP (RB (far))(RB (off)))(PP (JJ (such))(IN (as)))(NP (DT (a))(NN (car)))(PP (IN (in)))(NP (DT (a))(NN (park))(NN (lot)))(ADVP (WRB (why)))(VP (VBP (do)))(NP (PRP (we)))(VP (VB (say)))(NP (PRP (it)))(VP (VBZ (be)))(PP (IN (in)))(NP-REL-WIK (NNP-REL-WIK (timbuktu))))) |BT| (ROOT (S (PP (IN (in)))(NP (WDT (which))(NN (country)))(VP (VBZ (be)))(NP-REL-WIK (NNP-REL-WIK (timbuktu))))) |BT| (ROOT (S (NP-REL-WIK (NNP-REL-WIK (timbuktu)))(NP-WIK (NNP-WIK (malus)))(VP (VB (keep))(VBG (grow))))) |ET| 19:0.81649661 42:0.45584232 64:0.32842833 139:0.30022213 159:0.2501851 160:0.031497039 161:1.2666667 162:0.76335877 163:1.6666666 164:0.30534351 165:0.30769232 169:1.3333334 171:1.7866666 172:1.7194921 173:0.81649661  |BV| 19:0.30860671 42:0.1672484 64:0.12171613 139:0.17320508 159:0.14433756 161:0.60000002 162:0.60000002 163:0.60000002 164:0.60000002 165:0.16666667 169:0.33333334 171:1.26 172:1.2314286 173:0.30860671  |EV| 
-0.83729093963477874140721723961178  |BT| (ROOT (S (NP (WP (what)))(VP (VBZ (do)))(NP-REL (DT (the))(NN-REL (bugler))(VB-REL (play)))(PP (IN (at)))(NP-REL (DT (the))(NN-REL (end)))(PP (IN (of)))(NP (DT (the))(NN (day)))(PP (IN (on)))(NP (DT (a))(NNP (us-WIK))(JJ (military))(NN (base))))) |BT| (ROOT (S (NP (DT (a))(NN (cousin)))(NP (PRP$ (his))(JJ (first))(NN (grade))(NN (teacher)))(NP (CD (four))(NNS (playmate)))(VP (VBN (arrive)))(PP (IN (in)))(NP-WIK (NNP-WIK (maryland)))(NP (JJ (last))(NN (week)))(PP (IN (from)))(NP-WIK (NNP-WIK (cuba)))(VP (TO (to))(VB (stay)))(PP (IN (with)))(NP (PRP (him))))(S (PP (IN (in)))(NP-WIK (NNP-WIK (miamus)))(NP (DT (the))(NN (demonstration)))(VP-REL (VBD-REL (end)))(ADVP (RB (quietly)))(PP (IN (with)))(NP-REL (DT (a-WIK))(NN-REL (bugler)))(VP-REL (VBG-REL (play)))(NP-WIK (DT (the))(JJ-WIK (cuban))(JJ (national))(PRP (anthem))))) |BT| (ROOT (S (NP (WP (what)))(VP (VBZ (do)))(NP-REL (DT (the))(NN-REL (bugler))(VB-REL (play)))(PP (IN (at)))(NP (DT (the))(NN (end)))(PP (IN (of)))(NP (DT (the))(NN (day)))(PP (IN (on)))(NP (DT (a))(NNP (us-WIK))(JJ (military))(NN (base))))) |BT| (ROOT (S (NP-REL (DT (a))(JJ (lone))(NN-REL (bugler)))(VP-REL (VBD-REL (play)))(NP (NNS (tap))))) |ET| 19:0.6185537 42:0.3985084 64:0.28644595 65:0.041478068 85:0.028298425 139:0.58569843 159:0.49905622 160:0.22433285 161:1.1304348 162:0.74074072 163:1.4492754 164:0.19259259 165:0.23809524 166:0.03773585 169:0.66666669 170:0.125 171:1.9142857 172:1.6142857 173:0.6185537  |BV| 19:0.44232586 42:0.33075929 64:0.23756555 65:0.0996271 85:0.070272841 139:0.24247669 159:0.20029819 160:0.028375218 161:0.40579709 162:0.8888889 163:0.63768119 164:0.56565654 165:0.30000001 166:0.090909094 169:0.40000001 170:0.125 171:1.7142857 172:1.4230158 173:0.44232586  |EV| 
0.83729093963477874140721723961178  |BT| (ROOT (S (NP (WP (what)))(VP (VBZ (do)))(NP-REL (DT (the))(NN-REL (bugler))(VB-REL (play)))(PP (IN (at)))(NP (DT (the))(NN (end)))(PP (IN (of)))(NP (DT (the))(NN (day)))(PP (IN (on)))(NP (DT (a))(NNP (us-WIK))(JJ (military))(NN (base))))) |BT| (ROOT (S (NP-REL (DT (a))(JJ (lone))(NN-REL (bugler)))(VP-REL (VBD-REL (play)))(NP (NNS (tap))))) |BT| (ROOT (S (NP (WP (what)))(VP (VBZ (do)))(NP-REL (DT (the))(NN-REL (bugler))(VB-REL (play)))(PP (IN (at)))(NP-REL (DT (the))(NN-REL (end)))(PP (IN (of)))(NP (DT (the))(NN (day)))(PP (IN (on)))(NP (DT (a))(NNP (us-WIK))(JJ (military))(NN (base))))) |BT| (ROOT (S (NP (DT (a))(NN (cousin)))(NP (PRP$ (his))(JJ (first))(NN (grade))(NN (teacher)))(NP (CD (four))(NNS (playmate)))(VP (VBN (arrive)))(PP (IN (in)))(NP-WIK (NNP-WIK (maryland)))(NP (JJ (last))(NN (week)))(PP (IN (from)))(NP-WIK (NNP-WIK (cuba)))(VP (TO (to))(VB (stay)))(PP (IN (with)))(NP (PRP (him))))(S (PP (IN (in)))(NP-WIK (NNP-WIK (miamus)))(NP (DT (the))(NN (demonstration)))(VP-REL (VBD-REL (end)))(ADVP (RB (quietly)))(PP (IN (with)))(NP-REL (DT (a-WIK))(NN-REL (bugler)))(VP-REL (VBG-REL (play)))(NP-WIK (DT (the))(JJ-WIK (cuban))(JJ (national))(PRP (anthem))))) |ET| 19:0.51075393 42:0.38624364 64:0.28109136 65:0.11973687 85:0.086066298 139:0.28690228 159:0.24072845 160:0.034752402 161:0.40579709 162:0.86021507 163:0.57971013 164:0.60215056 165:0.33333334 166:0.1 169:0.40000001 170:0.125 171:1.7142857 172:1.4230158 173:0.51075393  |BV| 19:0.6185537 42:0.3985084 64:0.28644595 65:0.041478068 85:0.028298425 139:0.58569843 159:0.49905622 160:0.22433285 161:1.1304348 162:0.74074072 163:1.4492754 164:0.19259259 165:0.23809524 166:0.03773585 169:0.66666669 170:0.125 171:1.9142857 172:1.6142857 173:0.6185537  |EV| 
0.83729093963477874140721723961178  |BT| (ROOT (S (NP (WDT (what))(NN (city)))(VP (VBZ (be)))(NP-REL (DT (the))(NN-REL (gateway))(NN-REL (arch)))(VP (VBN (locate)))(PP (IN (in))))) |BT| (ROOT (S (NP-WIK (NNP-WIK (st.))(NNP-WIK (loui))(NNP (_)))(NP (PRP (it)))(VP (VBD (be))(VBG (fit)))(SBAR (IN (that)))(NP-WIK (NNP-WIK (miamus)))(NP-WIK (POS ('))(JJ (improbable))(NNP-WIK (ncaa))(NN (tournament))(NN (run)))(VP (VBD (die)))(PP (IN (under)))(NP-REL (DT (the))(NNP-REL (gateway))(NNP-REL (arch))))) |BT| (ROOT (S (NP-REL (WDT (what))(NN-REL (city)))(VP (VBZ (be)))(NP-REL (DT (the))(NN-REL (gateway))(NN-REL (arch)))(VP (VBN (locate)))(PP (IN (in))))) |BT| (ROOT (S (PP (IN (from)))(NP (DT (a-WIK))(NN (mile)))(ADVP (RB (away)))(NP (CD (one)))(VP (MD (could))(VB (see)))(NP (DT (the))(VBG (tower))(NN (statue)))(PP (IN (of)))(NP-WIK (NNP-WIK (saddam)))(PP (IN (atop)))(NP-REL (DT (a-WIK))(JJ (three-story))(JJ (high))(JJ (white))(NN (stone))(NN-REL (arch)))(NP-REL (DT (the))(NN-REL (gateway)))(PP (TO (to)))(NP-REL (DT (the))(NN-REL (city))))(S (NP-WIK (NNP-WIK (saddam)))(PP (IN (in)))(NP (JJ (military))(NN (uniform)))(VP (VBZ (be))(VBN (pose)))(PP (IN (with)))(NP (DT (a-WIK))(VBN (raise))(NN (right))(NN (arm)))(SBAR (IN (as))(IN (if)))(NP (JJ (welcome))(NNS (visitor))))) |ET| 19:0.61177528 42:0.47847134 64:0.3888889 65:0.26186147 85:0.1833397 86:0.09656091 139:0.1932503 159:0.16463819 160:0.028903665 161:1.2195122 162:0.77037036 163:1.2682927 164:0.53333336 165:0.33333334 166:0.16666667 167:0.086956523 169:0.8888889 170:0.5 171:1.85 172:1.7638888 173:0.61177528  |BV| 19:0.62421948 42:0.40360367 64:0.29047376 65:0.055363655 85:0.038426027 139:0.50203073 159:0.43263862 160:0.10383482 161:1.3658537 162:0.50196081 163:1.5609756 164:0.20392157 165:0.30769232 166:0.039215688 169:1.3333334 170:0.25 171:2 172:1.8723413 173:0.62421948  |EV| 
-0.11838654410180897424975654530499  |BT| (ROOT (S (NP (WP (what)))(VP (VBZ (be)))(NP (DT (the))(NN (population)))(PP (IN (of)))(NP-REL-WIK (NNP-REL-WIK (canberra))))) |BT| (ROOT (S (NP-REL-WIK (NNP-REL-WIK (canberra)))(NP-WIK (NNP-WIK (australium)))(NP-WIK (NNP-WIK (ap)))(VP (VBP (_)))(NP (DT (an))(NN (earthquake)))(PP (IN (with)))(NP (DT (a-WIK))(NN (magnitude)))(PP (IN (of)))(NP (CD (4.3)))(VP (VBD (shake)))(NP (DT (the))(RB (sparsely))(VBN (populate))(JJ (northern))(NN (part)))(PP (IN (of)))(NP-WIK (NNP-WIK (south))(NNP-WIK (australium))(NN (state)))(PP (IN (on)))(NP (NNP (tuesday))))(S (NP (EX (there)))(VP (VBD (be)))(NP (DT (no))(NNS (report)))(PP (IN (of)))(NP (NNS (injury))(CC (or))(NN (damage))))) |BT| (ROOT (S (NP (WP (what)))(VP (VBZ (be)))(NP-REL (DT (the))(NN-REL (population)))(PP (IN (of)))(NP-REL-WIK (NNP-REL-WIK (canberra))))) |BT| (ROOT (S (NP (NNP (capital)))(NP-REL-WIK (NNP-REL-WIK (canberra)))(PP (IN (with)))(NP-REL (DT (a-WIK))(NN-REL (population)))(PP (IN (of)))(NP (CD (306,400))(-LRB- (-lrb-))(CD (1996))(-RRB- (-rrb-))))(S (NP (PRP (it)))(VP (VBZ (lie)))(PP (IN (in)))(NP (CD (one)))(PP (IN (of)))(NP (CD (two))(NNS (enclave)))(PP (IN (of)))(NP (JJ (federal))(NN (territory)))(VP (VBP (know)))(SBAR (IN (as)))(NP (DT (the))(JJ (australian))(NNP (capital))(NNP (territory))))) |ET| 19:0.66873384 42:0.36980012 64:0.26375219 139:0.57869136 159:0.50091559 160:0.34780416 161:1.4444444 162:0.54700857 163:1.7777778 164:0.15384616 165:0.22857143 169:1.1428572 171:2 172:1.8883333 173:0.66873384  |BV| 19:0.7083376 42:0.46744639 64:0.33678767 65:0.081311561 85:0.057377532 139:0.398862 159:0.33371189 160:0.10947611 161:1.5555556 162:0.61538464 163:1.6666666 164:0.30769232 165:0.2962963 166:0.060606062 169:1.1428572 170:0.33333334 171:2 172:1.787037 173:0.7083376  |EV| 
-0.83729093963477874140721723961178  |BT| (ROOT (S (ADVP (WRB (where)))(NP-REL-WIK (NNP-REL (dr.))(NNP-REL-WIK (king)))(VP (VB (give)))(NP-REL (PRP$ (he))(NN-REL (speech)))(PP (IN (in-WIK)))(NP-REL-WIK (NNP-REL-WIK (washington))))) |BT| (ROOT (S (NP (PRP (it)))(VP (VBZ (be)))(ADJP (JJ (difficult)))(VP (TO (to-WIK))(VB (conceive)))(PP (IN (of)))(NP-REL (DT (a-WIK))(RBR (more))(JJ (public))(NN-REL (speech))))(S (NP (DT (this)))(VP (VBZ (be)))(NP-REL (DT (a-WIK))(NN-REL (speech)))(PP (VBN (give)))(PP (IN (during)))(NP (DT (the))(JJ (historic))(NN (march)))(PP (IN (on-WIK)))(NP-REL-WIK (NNP-REL-WIK (washington))))(S (NP (PRP (it)))(VP (VBZ (have))(VBN (play)))(NP (DT (a-WIK))(JJ (pivotal))(NN (role)))(PP (IN (in-WIK)))(NP (DT (the))(NN (history)))(PP (IN (of)))(NP (DT (the))(JJ (civil))(NNS (rights))(NN (movement)))(NP (PRP (it-WIK)))(VP (VBZ (be)))(NP-REL (DT (the))(JJ (single))(NN-REL (speech)))(SBAR (IN (that)))(NP-REL (NNP-REL (dr.))(NNP-REL (king)))(VP (VBZ (be)))(ADJP (JJS (most))(VBN (remember)))(PP (IN (for)))(VP (VBD (say)))(NP-WIK (NNP-WIK (ken))(NNP-WIK (paulson)))(NP (JJ (executive))(NN (director)))(PP (IN (of)))(NP-WIK (DT (the))(NNP (first-WIK))(NNP-WIK (amendment))(NNP-WIK (center)))(PP (IN (at)))(NP-WIK (NNP-WIK (vanderbilt))(NNP-WIK (university))))) |BT| (ROOT (S (ADVP (WRB (where)))(NP-REL-WIK (NNP-REL (dr.))(NNP-REL-WIK (king)))(VP (VB (give)))(NP-REL (PRP$ (he))(NN-REL (speech)))(PP (IN (in-WIK)))(NP-REL-WIK (NNP-REL-WIK (washington))))) |BT| (ROOT (S (PP (IN (on)))(NP (NNP (aug.))(CD (28))(, (,))(CD (1963)))(NP-REL-WIK (NNP-REL (dr.))(NNP-WIK (martin))(NNP-WIK (luther))(NNP-REL-WIK (king))(NNP-WIK (jr.)))(VP (VBD (deliver)))(NP (PRP$ (his)))(NP (PRP (i)))(VP (VBP (have)))(NP-REL (DT (a-WIK))(NNP (dream))('' (''))(NN-REL (speech)))(PP (IN (at)))(NP (DT (the-WIK))(NNP (lincoln))(NNP (memorial)))(PP (IN (during)))(NP (DT (a-WIK))(JJ (peaceful))(JJ (civil))(NNS (rights))(NN (rally)))(PP (IN (of)))(NP (DT (some))(CD (200,000))(NNS (people)))(PP (IN (in-WIK)))(NP-REL-WIK (NNP-REL-WIK (washington))))) |ET| 19:0.44038552 42:0.28983289 64:0.21121 65:0.041442435 85:0.028724249 139:0.46872973 159:0.41065708 160:0.22912878 161:1.6666666 162:0.37810946 163:1.5833334 164:0.12935324 165:0.22222222 166:0.02739726 169:1.2 170:0.22222222 171:1.8814815 172:1.8395061 173:0.44038552  |BV| 19:0.46625242 42:0.30217978 64:0.21170245 65:0.056773294 85:0.039283711 139:0.51865602 159:0.44389802 160:0.1821232 161:1.5833334 162:0.66101694 163:1.625 164:0.25423729 165:0.25 166:0.044444446 169:1 170:0.22222222 171:1.8814815 172:1.7679012 173:0.46625242  |EV| 
0.83729093963477874140721723961178  |BT| (ROOT (S (ADVP (WRB (when)))(VP (VBD (be)))(NP-REL (NNP-REL (apollo))(CD-REL (11)))(VP-REL (VBN-REL (launch))))) |BT| (ROOT (S (NP (CD (1969)))(NP-REL-WIK (NNP-WIK (u.s.))(NNP-REL (apollo))(CD-REL (11))(NN (spacecraft)))(VP-REL (VBZ (be))(VBN-REL (launch)))(PP (IN (from)))(NP-WIK (NNP-WIK (cape))(NNP-WIK (canaveral)))(NP-WIK (NNP-WIK (florida))))(S (VP (TO (to))(VB (attempt)))(NP (JJ (first))(JJ (man))(NN (land)))(PP (IN (on)))(NP (NNP (moon))))) |BT| (ROOT (S (ADVP (WRB (when)))(VP (VBD (be)))(NP-REL (NNP-REL (apollo))(CD-REL (11)))(VP-REL (VBN-REL (launch))))) |BT| (ROOT (S (NP-REL-WIK (DT (the))(NNP-REL-WIK (apollo))(CD-REL (11))(NN (moonwalk))(NN (mission)))(VP (VBD (be)))(NP (DT (the))(NN (outcome)))(PP (IN (of)))(NP-WIK (DT (the))(NNP-WIK (cold))(NNP-WIK (war))(NN (challenge)))(VP (VBN (issue)))(PP (IN (by)))(NP-WIK (NNP (president))(NNP-WIK (kennedy)))(PP (IN (in)))(NP (NNP (may))(CD (1961))(, (,))(CD (four))(NNS (year)))(SBAR (IN (after)))(NP-WIK (DT (the))(NNPS-WIK (russian)))(VP-REL (VBD-REL (launch)))(NP (NNP (sputnik))(NN (i.))))) |ET| 19:0.66666669 42:0.44946659 64:0.32025629 65:0.10411584 85:0.074535601 139:0.29677162 159:0.25 160:0.035533454 161:1.6153846 162:0.55882353 163:1.4615384 164:0.32352942 165:0.34782609 166:0.079999998 169:1.3333334 170:0.40000001 171:1.92 172:1.8333334 173:0.66666669  |BV| 19:0.51006138 42:0.362977 64:0.26352313 65:0.089893319 85:0.064150028 139:0.29970747 159:0.25660011 160:0.089802653 161:1.6923077 162:0.45652175 163:1.6153846 164:0.26086956 165:0.2857143 166:0.0625 169:1.3333334 170:0.40000001 171:1.92 172:1.8888888 173:0.51006138  |EV| 
